digraph Tree {
node [shape=box] ;
0 [label="node #0\nFEFPreVal <= 1.135\ngini = 0.5\nsamples = 204\nvalue = [166.5, 166.5]\nclass = Non-obstructive"] ;
1 [label="node #1\nFVCPostVal <= 1.145\ngini = 0.185\nsamples = 76\nvalue = [13.039, 113.659]\nclass = Obstructive"] ;
0 -> 1 [labeldistance=2.5, labelangle=45, headlabel="True"] ;
2 [label="node #2\nFEFPostPercent <= 19.0\ngini = 0.407\nsamples = 3\nvalue = [5.015, 1.994]\nclass = Non-obstructive"] ;
1 -> 2 ;
3 [label="node #3\ngini = 0.0\nsamples = 1\nvalue = [0.0, 1.994]\nclass = Obstructive"] ;
2 -> 3 ;
4 [label="node #4\ngini = 0.0\nsamples = 2\nvalue = [5.015, 0.0]\nclass = Non-obstructive"] ;
2 -> 4 ;
5 [label="node #5\nFEFPrePercent <= 32.5\ngini = 0.125\nsamples = 73\nvalue = [8.024, 111.665]\nclass = Obstructive"] ;
1 -> 5 ;
6 [label="node #6\nFEFPostPercent <= 23.5\ngini = 0.039\nsamples = 62\nvalue = [2.006, 98.704]\nclass = Obstructive"] ;
5 -> 6 ;
7 [label="node #7\ngini = 0.0\nsamples = 42\nvalue = [0.0, 61.814]\nclass = Obstructive"] ;
6 -> 7 ;
8 [label="node #8\ngini = 0.098\nsamples = 20\nvalue = [2.006, 36.889]\nclass = Obstructive"] ;
6 -> 8 ;
9 [label="node #9\nFVCPostVal <= 1.515\ngini = 0.433\nsamples = 11\nvalue = [6.018, 12.961]\nclass = Obstructive"] ;
5 -> 9 ;
10 [label="node #10\ngini = 0.319\nsamples = 3\nvalue = [4.012, 0.997]\nclass = Non-obstructive"] ;
9 -> 10 ;
11 [label="node #11\ngini = 0.246\nsamples = 8\nvalue = [2.006, 11.964]\nclass = Obstructive"] ;
9 -> 11 ;
12 [label="node #12\nFEV1PostVal <= 1.82\ngini = 0.381\nsamples = 128\nvalue = [153.461, 52.841]\nclass = Non-obstructive"] ;
0 -> 12 [labeldistance=2.5, labelangle=-45, headlabel="False"] ;
13 [label="node #13\nFVCPrePercent <= 92.5\ngini = 0.131\nsamples = 64\nvalue = [92.277, 6.979]\nclass = Non-obstructive"] ;
12 -> 13 ;
14 [label="node #14\nFEV1PostPercent <= 96.5\ngini = 0.097\nsamples = 63\nvalue = [92.277, 4.985]\nclass = Non-obstructive"] ;
13 -> 14 ;
15 [label="node #15\ngini = 0.079\nsamples = 62\nvalue = [92.277, 3.988]\nclass = Non-obstructive"] ;
14 -> 15 ;
16 [label="node #16\ngini = 0.0\nsamples = 1\nvalue = [0.0, 0.997]\nclass = Obstructive"] ;
14 -> 16 ;
17 [label="node #17\ngini = -0.0\nsamples = 1\nvalue = [0.0, 1.994]\nclass = Obstructive"] ;
13 -> 17 ;
18 [label="node #18\nFEFPostPercent <= 74.5\ngini = 0.49\nsamples = 64\nvalue = [61.184, 45.862]\nclass = Non-obstructive"] ;
12 -> 18 ;
19 [label="node #19\nFEFPreVal <= 2.68\ngini = 0.445\nsamples = 32\nvalue = [18.054, 35.892]\nclass = Obstructive"] ;
18 -> 19 ;
20 [label="node #20\ngini = 0.347\nsamples = 28\nvalue = [10.03, 34.895]\nclass = Obstructive"] ;
19 -> 20 ;
21 [label="node #21\ngini = 0.197\nsamples = 4\nvalue = [8.024, 0.997]\nclass = Non-obstructive"] ;
19 -> 21 ;
22 [label="node #22\nFEV1PreVal <= 3.465\ngini = 0.305\nsamples = 32\nvalue = [43.13, 9.97]\nclass = Non-obstructive"] ;
18 -> 22 ;
23 [label="node #23\ngini = 0.24\nsamples = 31\nvalue = [43.13, 6.979]\nclass = Non-obstructive"] ;
22 -> 23 ;
24 [label="node #24\ngini = 0.0\nsamples = 1\nvalue = [0.0, 2.991]\nclass = Obstructive"] ;
22 -> 24 ;
}