digraph Tree {
node [shape=box] ;
0 [label="node #0\nFEFPostPercent <= 38.5\ngini = 0.5\nsamples = 208\nvalue = [166.5, 166.5]\nclass = Non-obstructive"] ;
1 [label="node #1\nFEFPrePercent <= 35.275\ngini = 0.149\nsamples = 64\nvalue = [8.325, 94.318]\nclass = Obstructive"] ;
0 -> 1 [labeldistance=2.5, labelangle=45, headlabel="True"] ;
2 [label="node #2\nFEFPostPercent <= 35.5\ngini = 0.083\nsamples = 58\nvalue = [4.162, 91.431]\nclass = Obstructive"] ;
1 -> 2 ;
3 [label="node #3\nFVCPostPercent <= 34.0\ngini = 0.064\nsamples = 57\nvalue = [3.122, 91.431]\nclass = Obstructive"] ;
2 -> 3 ;
4 [label="node #4\ngini = 0.0\nsamples = 1\nvalue = [2.081, 0.0]\nclass = Non-obstructive"] ;
3 -> 4 ;
5 [label="node #5\ngini = 0.022\nsamples = 56\nvalue = [1.041, 91.431]\nclass = Obstructive"] ;
3 -> 5 ;
6 [label="node #6\ngini = 0.0\nsamples = 1\nvalue = [1.041, 0.0]\nclass = Non-obstructive"] ;
2 -> 6 ;
7 [label="node #7\nFVCPostPercent <= 70.492\ngini = 0.484\nsamples = 6\nvalue = [4.162, 2.887]\nclass = Non-obstructive"] ;
1 -> 7 ;
8 [label="node #8\ngini = 0.0\nsamples = 3\nvalue = [4.162, 0.0]\nclass = Non-obstructive"] ;
7 -> 8 ;
9 [label="node #9\ngini = 0.0\nsamples = 3\nvalue = [0.0, 2.887]\nclass = Obstructive"] ;
7 -> 9 ;
10 [label="node #10\nFEV1PostVal <= 2.845\ngini = 0.43\nsamples = 144\nvalue = [158.175, 72.182]\nclass = Non-obstructive"] ;
0 -> 10 [labeldistance=2.5, labelangle=-45, headlabel="False"] ;
11 [label="node #11\nFVCPostVal <= 2.15\ngini = 0.39\nsamples = 136\nvalue = [157.134, 56.783]\nclass = Non-obstructive"] ;
10 -> 11 ;
12 [label="node #12\nFEFPrePercent <= 56.5\ngini = 0.259\nsamples = 83\nvalue = [117.591, 21.173]\nclass = Non-obstructive"] ;
11 -> 12 ;
13 [label="node #13\ngini = 0.49\nsamples = 24\nvalue = [22.894, 17.324]\nclass = Non-obstructive"] ;
12 -> 13 ;
14 [label="node #14\ngini = 0.075\nsamples = 59\nvalue = [94.697, 3.85]\nclass = Non-obstructive"] ;
12 -> 14 ;
15 [label="node #15\nFEV1PostVal <= 2.055\ngini = 0.499\nsamples = 53\nvalue = [39.544, 35.61]\nclass = Non-obstructive"] ;
11 -> 15 ;
16 [label="node #16\ngini = 0.292\nsamples = 15\nvalue = [4.162, 19.249]\nclass = Obstructive"] ;
15 -> 16 ;
17 [label="node #17\ngini = 0.432\nsamples = 38\nvalue = [35.381, 16.361]\nclass = Non-obstructive"] ;
15 -> 17 ;
18 [label="node #18\nFEV1PreVal <= 3.32\ngini = 0.119\nsamples = 8\nvalue = [1.041, 15.399]\nclass = Obstructive"] ;
10 -> 18 ;
19 [label="node #19\ngini = 0.0\nsamples = 6\nvalue = [0.0, 14.436]\nclass = Obstructive"] ;
18 -> 19 ;
20 [label="node #20\nFVCPreVal <= 4.4\ngini = 0.499\nsamples = 2\nvalue = [1.041, 0.962]\nclass = Non-obstructive"] ;
18 -> 20 ;
21 [label="node #21\ngini = 0.0\nsamples = 1\nvalue = [1.041, 0.0]\nclass = Non-obstructive"] ;
20 -> 21 ;
22 [label="node #22\ngini = 0.0\nsamples = 1\nvalue = [0.0, 0.962]\nclass = Obstructive"] ;
20 -> 22 ;
}