digraph Tree {
node [shape=box] ;
0 [label="node #0\nFEFPrePercent <= 33.5\ngini = 0.5\nsamples = 211\nvalue = [167.0, 167.0]\nclass = Non-obstructive"] ;
1 [label="node #1\nFEV1PreVal <= 1.165\ngini = 0.179\nsamples = 74\nvalue = [11.201, 101.182]\nclass = Obstructive"] ;
0 -> 1 [labeldistance=2.5, labelangle=45, headlabel="True"] ;
2 [label="node #2\nFEFPostVal <= 0.71\ngini = 0.265\nsamples = 47\nvalue = [11.201, 59.924]\nclass = Obstructive"] ;
1 -> 2 ;
3 [label="node #3\nFEFPostPercent <= 23.5\ngini = 0.07\nsamples = 36\nvalue = [2.037, 54.029]\nclass = Obstructive"] ;
2 -> 3 ;
4 [label="node #4\ngini = 0.038\nsamples = 33\nvalue = [1.018, 52.065]\nclass = Obstructive"] ;
3 -> 4 ;
5 [label="node #5\ngini = 0.45\nsamples = 3\nvalue = [1.018, 1.965]\nclass = Obstructive"] ;
3 -> 5 ;
6 [label="node #6\nFEV1PostVal <= 1.245\ngini = 0.476\nsamples = 11\nvalue = [9.165, 5.894]\nclass = Non-obstructive"] ;
2 -> 6 ;
7 [label="node #7\ngini = 0.213\nsamples = 5\nvalue = [7.128, 0.982]\nclass = Non-obstructive"] ;
6 -> 7 ;
8 [label="node #8\ngini = 0.414\nsamples = 6\nvalue = [2.037, 4.912]\nclass = Obstructive"] ;
6 -> 8 ;
9 [label="node #9\ngini = 0.0\nsamples = 27\nvalue = [0.0, 41.259]\nclass = Obstructive"] ;
1 -> 9 ;
10 [label="node #10\nFEV1PostVal <= 1.875\ngini = 0.418\nsamples = 137\nvalue = [155.799, 65.818]\nclass = Non-obstructive"] ;
0 -> 10 [labeldistance=2.5, labelangle=-45, headlabel="False"] ;
11 [label="node #11\nFEFPostVal <= 1.085\ngini = 0.203\nsamples = 78\nvalue = [105.902, 13.753]\nclass = Non-obstructive"] ;
10 -> 11 ;
12 [label="node #12\nFEFPostPercent <= 34.0\ngini = 0.473\nsamples = 6\nvalue = [3.055, 4.912]\nclass = Obstructive"] ;
11 -> 12 ;
13 [label="node #13\ngini = 0.368\nsamples = 3\nvalue = [3.055, 0.982]\nclass = Non-obstructive"] ;
12 -> 13 ;
14 [label="node #14\ngini = 0.0\nsamples = 3\nvalue = [0.0, 3.929]\nclass = Obstructive"] ;
12 -> 14 ;
15 [label="node #15\nFEV1PrePercent <= 82.5\ngini = 0.146\nsamples = 72\nvalue = [102.848, 8.841]\nclass = Non-obstructive"] ;
11 -> 15 ;
16 [label="node #16\ngini = 0.089\nsamples = 70\nvalue = [100.811, 4.912]\nclass = Non-obstructive"] ;
15 -> 16 ;
17 [label="node #17\ngini = 0.45\nsamples = 2\nvalue = [2.037, 3.929]\nclass = Obstructive"] ;
15 -> 17 ;
18 [label="node #18\nFVCPostPercent <= 64.5\ngini = 0.5\nsamples = 59\nvalue = [49.896, 52.065]\nclass = Obstructive"] ;
10 -> 18 ;
19 [label="node #19\nFEV1PostVal <= 2.85\ngini = 0.339\nsamples = 11\nvalue = [14.256, 3.929]\nclass = Non-obstructive"] ;
18 -> 19 ;
20 [label="node #20\ngini = 0.213\nsamples = 10\nvalue = [14.256, 1.965]\nclass = Non-obstructive"] ;
19 -> 20 ;
21 [label="node #21\ngini = 0.0\nsamples = 1\nvalue = [0.0, 1.965]\nclass = Obstructive"] ;
19 -> 21 ;
22 [label="node #22\nFEFPostPercent <= 88.5\ngini = 0.489\nsamples = 48\nvalue = [35.64, 48.135]\nclass = Obstructive"] ;
18 -> 22 ;
23 [label="node #23\ngini = 0.41\nsamples = 35\nvalue = [16.293, 40.276]\nclass = Obstructive"] ;
22 -> 23 ;
24 [label="node #24\ngini = 0.411\nsamples = 13\nvalue = [19.348, 7.859]\nclass = Non-obstructive"] ;
22 -> 24 ;
}