digraph Tree {
node [shape=box] ;
0 [label="node #0\nFEFPrePercent <= 33.5\ngini = 0.5\nsamples = 213\nvalue = [167.0, 167.0]\nclass = Non-obstructive"] ;
1 [label="node #1\nFVCPostVal <= 1.935\ngini = 0.137\nsamples = 76\nvalue = [8.097, 101.781]\nclass = Obstructive"] ;
0 -> 1 [labeldistance=2.5, labelangle=45, headlabel="True"] ;
2 [label="node #2\nFEV1PrePercent <= 49.5\ngini = 0.272\nsamples = 32\nvalue = [7.085, 36.562]\nclass = Obstructive"] ;
1 -> 2 ;
3 [label="node #3\nFVCPostVal <= 1.925\ngini = 0.099\nsamples = 29\nvalue = [2.024, 36.562]\nclass = Obstructive"] ;
2 -> 3 ;
4 [label="node #4\ngini = 0.0\nsamples = 28\nvalue = [0.0, 36.562]\nclass = Obstructive"] ;
3 -> 4 ;
5 [label="node #5\ngini = -0.0\nsamples = 1\nvalue = [2.024, 0.0]\nclass = Non-obstructive"] ;
3 -> 5 ;
6 [label="node #6\ngini = 0.0\nsamples = 3\nvalue = [5.061, 0.0]\nclass = Non-obstructive"] ;
2 -> 6 ;
7 [label="node #7\nFVCPostPercent <= 66.5\ngini = 0.03\nsamples = 44\nvalue = [1.012, 65.219]\nclass = Obstructive"] ;
1 -> 7 ;
8 [label="node #8\nFVCPostPercent <= 65.0\ngini = 0.135\nsamples = 12\nvalue = [1.012, 12.846]\nclass = Obstructive"] ;
7 -> 8 ;
9 [label="node #9\ngini = 0.0\nsamples = 11\nvalue = [0.0, 12.846]\nclass = Obstructive"] ;
8 -> 9 ;
10 [label="node #10\ngini = -0.0\nsamples = 1\nvalue = [1.012, 0.0]\nclass = Non-obstructive"] ;
8 -> 10 ;
11 [label="node #11\ngini = 0.0\nsamples = 32\nvalue = [0.0, 52.373]\nclass = Obstructive"] ;
7 -> 11 ;
12 [label="node #12\nFVCPrePercent <= 61.5\ngini = 0.413\nsamples = 137\nvalue = [158.903, 65.219]\nclass = Non-obstructive"] ;
0 -> 12 [labeldistance=2.5, labelangle=-45, headlabel="False"] ;
13 [label="node #13\nFEFPrePercent <= 46.5\ngini = 0.11\nsamples = 60\nvalue = [95.139, 5.929]\nclass = Non-obstructive"] ;
12 -> 13 ;
14 [label="node #14\nFVCPreVal <= 2.82\ngini = 0.392\nsamples = 12\nvalue = [16.194, 5.929]\nclass = Non-obstructive"] ;
13 -> 14 ;
15 [label="node #15\ngini = 0.262\nsamples = 11\nvalue = [16.194, 2.964]\nclass = Non-obstructive"] ;
14 -> 15 ;
16 [label="node #16\ngini = -0.0\nsamples = 1\nvalue = [0.0, 2.964]\nclass = Obstructive"] ;
14 -> 16 ;
17 [label="node #17\ngini = 0.0\nsamples = 48\nvalue = [78.945, 0.0]\nclass = Non-obstructive"] ;
13 -> 17 ;
18 [label="node #18\nFEFPrePercent <= 75.5\ngini = 0.499\nsamples = 77\nvalue = [63.764, 59.29]\nclass = Non-obstructive"] ;
12 -> 18 ;
19 [label="node #19\nFVCPostVal <= 3.355\ngini = 0.47\nsamples = 46\nvalue = [29.352, 48.42]\nclass = Obstructive"] ;
18 -> 19 ;
20 [label="node #20\ngini = 0.5\nsamples = 35\nvalue = [28.339, 29.645]\nclass = Obstructive"] ;
19 -> 20 ;
21 [label="node #21\ngini = 0.097\nsamples = 11\nvalue = [1.012, 18.775]\nclass = Obstructive"] ;
19 -> 21 ;
22 [label="node #22\nFEV1PostPercent <= 66.5\ngini = 0.365\nsamples = 31\nvalue = [34.412, 10.87]\nclass = Non-obstructive"] ;
18 -> 22 ;
23 [label="node #23\ngini = 0.0\nsamples = 1\nvalue = [0.0, 1.976]\nclass = Obstructive"] ;
22 -> 23 ;
24 [label="node #24\ngini = 0.326\nsamples = 30\nvalue = [34.412, 8.893]\nclass = Non-obstructive"] ;
22 -> 24 ;
}