digraph Tree {
node [shape=box] ;
0 [label="node #0\nFEFPrePercent <= 57.5\ngini = 0.5\nsamples = 214\nvalue = [166.5, 166.5]\nclass = Obstructive"] ;
1 [label="node #1\nFEFPreVal <= 1.085\ngini = 0.291\nsamples = 114\nvalue = [31.76, 147.769]\nclass = Obstructive"] ;
0 -> 1 [labeldistance=2.5, labelangle=45, headlabel="True"] ;
2 [label="node #2\nFVCPostVal <= 1.21\ngini = 0.108\nsamples = 75\nvalue = [6.737, 111.347]\nclass = Obstructive"] ;
1 -> 2 ;
3 [label="node #3\nFEFPrePercent <= 18.5\ngini = 0.456\nsamples = 3\nvalue = [1.925, 1.041]\nclass = Non-obstructive"] ;
2 -> 3 ;
4 [label="node #4\ngini = 0.0\nsamples = 1\nvalue = [0.0, 1.041]\nclass = Obstructive"] ;
3 -> 4 ;
5 [label="node #5\ngini = 0.0\nsamples = 2\nvalue = [1.925, 0.0]\nclass = Non-obstructive"] ;
3 -> 5 ;
6 [label="node #6\nFEV1PostVal <= 1.33\ngini = 0.08\nsamples = 72\nvalue = [4.812, 110.306]\nclass = Obstructive"] ;
2 -> 6 ;
7 [label="node #7\ngini = 0.043\nsamples = 52\nvalue = [1.925, 85.331]\nclass = Obstructive"] ;
6 -> 7 ;
8 [label="node #8\ngini = 0.186\nsamples = 20\nvalue = [2.887, 24.975]\nclass = Obstructive"] ;
6 -> 8 ;
9 [label="node #9\nFVCPostVal <= 2.16\ngini = 0.483\nsamples = 39\nvalue = [25.023, 36.422]\nclass = Obstructive"] ;
1 -> 9 ;
10 [label="node #10\nFEFPrePercent <= 54.43\ngini = 0.345\nsamples = 15\nvalue = [18.286, 5.203]\nclass = Non-obstructive"] ;
9 -> 10 ;
11 [label="node #11\ngini = 0.249\nsamples = 14\nvalue = [18.286, 3.122]\nclass = Non-obstructive"] ;
10 -> 11 ;
12 [label="node #12\ngini = 0.0\nsamples = 1\nvalue = [0.0, 2.081]\nclass = Obstructive"] ;
10 -> 12 ;
13 [label="node #13\nFEFPreVal <= 1.155\ngini = 0.292\nsamples = 24\nvalue = [6.737, 31.219]\nclass = Obstructive"] ;
9 -> 13 ;
14 [label="node #14\ngini = 0.0\nsamples = 1\nvalue = [1.925, 0.0]\nclass = Non-obstructive"] ;
13 -> 14 ;
15 [label="node #15\ngini = 0.231\nsamples = 23\nvalue = [4.812, 31.219]\nclass = Obstructive"] ;
13 -> 15 ;
16 [label="node #16\nFEFPostPercent <= 96.5\ngini = 0.214\nsamples = 100\nvalue = [134.74, 18.731]\nclass = Non-obstructive"] ;
0 -> 16 [labeldistance=2.5, labelangle=-45, headlabel="False"] ;
17 [label="node #17\nFVCPreVal <= 3.36\ngini = 0.367\nsamples = 50\nvalue = [58.708, 18.731]\nclass = Non-obstructive"] ;
16 -> 17 ;
18 [label="node #18\nFEV1PostPercent <= 57.5\ngini = 0.268\nsamples = 43\nvalue = [54.858, 10.406]\nclass = Non-obstructive"] ;
17 -> 18 ;
19 [label="node #19\ngini = 0.0\nsamples = 14\nvalue = [21.173, 0.0]\nclass = Non-obstructive"] ;
18 -> 19 ;
20 [label="node #20\ngini = 0.361\nsamples = 29\nvalue = [33.685, 10.406]\nclass = Non-obstructive"] ;
18 -> 20 ;
21 [label="node #21\nFEV1PostPercent <= 94.5\ngini = 0.432\nsamples = 7\nvalue = [3.85, 8.325]\nclass = Obstructive"] ;
17 -> 21 ;
22 [label="node #22\ngini = 0.0\nsamples = 5\nvalue = [0.0, 8.325]\nclass = Obstructive"] ;
21 -> 22 ;
23 [label="node #23\ngini = 0.0\nsamples = 2\nvalue = [3.85, 0.0]\nclass = Non-obstructive"] ;
21 -> 23 ;
24 [label="node #24\ngini = 0.0\nsamples = 50\nvalue = [76.032, 0.0]\nclass = Non-obstructive"] ;
16 -> 24 ;
}