digraph Tree {
node [shape=box] ;
0 [label="node #0\nFEFPreVal <= 1.085\ngini = 0.5\nsamples = 215\nvalue = [166.5, 166.5]\nclass = Obstructive"] ;
1 [label="node #1\nFVCPostVal <= 1.21\ngini = 0.129\nsamples = 71\nvalue = [8.662, 116.55]\nclass = Obstructive"] ;
0 -> 1 [labeldistance=2.5, labelangle=45, headlabel="True"] ;
2 [label="node #2\nFVCPreVal <= 0.81\ngini = 0.292\nsamples = 5\nvalue = [4.812, 1.041]\nclass = Non-obstructive"] ;
1 -> 2 ;
3 [label="node #3\ngini = 0.0\nsamples = 1\nvalue = [0.0, 1.041]\nclass = Obstructive"] ;
2 -> 3 ;
4 [label="node #4\ngini = 0.0\nsamples = 4\nvalue = [4.812, 0.0]\nclass = Non-obstructive"] ;
2 -> 4 ;
5 [label="node #5\nFVCPostVal <= 1.935\ngini = 0.062\nsamples = 66\nvalue = [3.85, 115.509]\nclass = Obstructive"] ;
1 -> 5 ;
6 [label="node #6\nFEV1PostVal <= 1.375\ngini = 0.133\nsamples = 32\nvalue = [3.85, 49.95]\nclass = Obstructive"] ;
5 -> 6 ;
7 [label="node #7\ngini = 0.071\nsamples = 31\nvalue = [1.925, 49.95]\nclass = Obstructive"] ;
6 -> 7 ;
8 [label="node #8\ngini = 0.0\nsamples = 1\nvalue = [1.925, 0.0]\nclass = Non-obstructive"] ;
6 -> 8 ;
9 [label="node #9\ngini = -0.0\nsamples = 34\nvalue = [0.0, 65.559]\nclass = Obstructive"] ;
5 -> 9 ;
10 [label="node #10\nFVCPostVal <= 2.105\ngini = 0.365\nsamples = 144\nvalue = [157.838, 49.95]\nclass = Non-obstructive"] ;
0 -> 10 [labeldistance=2.5, labelangle=-45, headlabel="False"] ;
11 [label="node #11\nFEFPostVal <= 1.08\ngini = 0.073\nsamples = 72\nvalue = [105.867, 4.162]\nclass = Non-obstructive"] ;
10 -> 11 ;
12 [label="node #12\ngini = 0.0\nsamples = 1\nvalue = [0.0, 1.041]\nclass = Obstructive"] ;
11 -> 12 ;
13 [label="node #13\nFEFPostVal <= 1.8\ngini = 0.056\nsamples = 71\nvalue = [105.867, 3.122]\nclass = Non-obstructive"] ;
11 -> 13 ;
14 [label="node #14\ngini = 0.167\nsamples = 23\nvalue = [30.798, 3.122]\nclass = Non-obstructive"] ;
13 -> 14 ;
15 [label="node #15\ngini = 0.0\nsamples = 48\nvalue = [75.069, 0.0]\nclass = Non-obstructive"] ;
13 -> 15 ;
16 [label="node #16\nFEFPostVal <= 3.18\ngini = 0.498\nsamples = 72\nvalue = [51.971, 45.787]\nclass = Non-obstructive"] ;
10 -> 16 ;
17 [label="node #17\nFVCPostVal <= 3.345\ngini = 0.469\nsamples = 53\nvalue = [26.948, 44.747]\nclass = Obstructive"] ;
16 -> 17 ;
18 [label="node #18\ngini = 0.498\nsamples = 42\nvalue = [25.986, 29.138]\nclass = Obstructive"] ;
17 -> 18 ;
19 [label="node #19\ngini = 0.109\nsamples = 11\nvalue = [0.962, 15.609]\nclass = Obstructive"] ;
17 -> 19 ;
20 [label="node #20\nFVCPreVal <= 4.3\ngini = 0.077\nsamples = 19\nvalue = [25.023, 1.041]\nclass = Non-obstructive"] ;
16 -> 20 ;
21 [label="node #21\ngini = 0.0\nsamples = 18\nvalue = [25.023, 0.0]\nclass = Non-obstructive"] ;
20 -> 21 ;
22 [label="node #22\ngini = -0.0\nsamples = 1\nvalue = [0.0, 1.041]\nclass = Obstructive"] ;
20 -> 22 ;
}