digraph Tree {
node [shape=box] ;
0 [label="node #0\nFVCPreVal <= 1.035\ngini = 0.5\nsamples = 201\nvalue = [166.5, 166.5]\nclass = Obstructive"] ;
1 [label="node #1\nFEV1PostPercent <= 70.0\ngini = 0.105\nsamples = 23\nvalue = [33.898, 2.006]\nclass = Non-obstructive"] ;
0 -> 1 [labeldistance=2.5, labelangle=45, headlabel="True"] ;
2 [label="node #2\nFEV1PrePercent <= 18.5\ngini = 0.056\nsamples = 22\nvalue = [33.898, 1.003]\nclass = Non-obstructive"] ;
1 -> 2 ;
3 [label="node #3\ngini = 0.0\nsamples = 1\nvalue = [0.0, 1.003]\nclass = Obstructive"] ;
2 -> 3 ;
4 [label="node #4\ngini = 0.0\nsamples = 21\nvalue = [33.898, 0.0]\nclass = Non-obstructive"] ;
2 -> 4 ;
5 [label="node #5\ngini = 0.0\nsamples = 1\nvalue = [0.0, 1.003]\nclass = Obstructive"] ;
1 -> 5 ;
6 [label="node #6\nFEFPostVal <= 1.275\ngini = 0.494\nsamples = 178\nvalue = [132.602, 164.494]\nclass = Obstructive"] ;
0 -> 6 [labeldistance=2.5, labelangle=-45, headlabel="False"] ;
7 [label="node #7\nFEFPostVal <= 0.825\ngini = 0.171\nsamples = 70\nvalue = [10.967, 105.316]\nclass = Obstructive"] ;
6 -> 7 ;
8 [label="node #8\nFVCPreVal <= 1.36\ngini = 0.027\nsamples = 43\nvalue = [0.997, 71.214]\nclass = Obstructive"] ;
7 -> 8 ;
9 [label="node #9\ngini = 0.132\nsamples = 9\nvalue = [0.997, 13.039]\nclass = Obstructive"] ;
8 -> 9 ;
10 [label="node #10\ngini = 0.0\nsamples = 34\nvalue = [0.0, 58.175]\nclass = Obstructive"] ;
8 -> 10 ;
11 [label="node #11\nFEFPostVal <= 0.835\ngini = 0.35\nsamples = 27\nvalue = [9.97, 34.102]\nclass = Obstructive"] ;
7 -> 11 ;
12 [label="node #12\ngini = 0.0\nsamples = 1\nvalue = [2.991, 0.0]\nclass = Non-obstructive"] ;
11 -> 12 ;
13 [label="node #13\ngini = 0.282\nsamples = 26\nvalue = [6.979, 34.102]\nclass = Obstructive"] ;
11 -> 13 ;
14 [label="node #14\nFEV1PostVal <= 1.935\ngini = 0.44\nsamples = 108\nvalue = [121.635, 59.178]\nclass = Non-obstructive"] ;
6 -> 14 ;
15 [label="node #15\nFEV1PreVal <= 0.885\ngini = 0.224\nsamples = 55\nvalue = [81.754, 12.036]\nclass = Non-obstructive"] ;
14 -> 15 ;
16 [label="node #16\ngini = 0.0\nsamples = 1\nvalue = [0.0, 2.006]\nclass = Obstructive"] ;
15 -> 16 ;
17 [label="node #17\ngini = 0.195\nsamples = 54\nvalue = [81.754, 10.03]\nclass = Non-obstructive"] ;
15 -> 17 ;
18 [label="node #18\nFEFPostVal <= 3.08\ngini = 0.497\nsamples = 53\nvalue = [39.88, 47.142]\nclass = Obstructive"] ;
14 -> 18 ;
19 [label="node #19\ngini = 0.36\nsamples = 32\nvalue = [12.961, 42.127]\nclass = Obstructive"] ;
18 -> 19 ;
20 [label="node #20\ngini = 0.265\nsamples = 21\nvalue = [26.919, 5.015]\nclass = Non-obstructive"] ;
18 -> 20 ;
}