digraph Tree {
node [shape=box] ;
0 [label="node #0\nFVCPostPercent <= 42.5\ngini = 0.5\nsamples = 205\nvalue = [166.5, 166.5]\nclass = Non-obstructive"] ;
1 [label="node #1\nFEFPrePercent <= 16.0\ngini = 0.232\nsamples = 29\nvalue = [41.858, 6.487]\nclass = Non-obstructive"] ;
0 -> 1 [labeldistance=2.5, labelangle=45, headlabel="True"] ;
2 [label="node #2\nFEFPostPercent <= 10.5\ngini = 0.219\nsamples = 4\nvalue = [0.93, 6.487]\nclass = Obstructive"] ;
1 -> 2 ;
3 [label="node #3\ngini = 0.0\nsamples = 3\nvalue = [0.0, 6.487]\nclass = Obstructive"] ;
2 -> 3 ;
4 [label="node #4\ngini = 0.0\nsamples = 1\nvalue = [0.93, 0.0]\nclass = Non-obstructive"] ;
2 -> 4 ;
5 [label="node #5\ngini = 0.0\nsamples = 25\nvalue = [40.927, 0.0]\nclass = Non-obstructive"] ;
1 -> 5 ;
6 [label="node #6\nFEV1PrePercent <= 46.47\ngini = 0.492\nsamples = 176\nvalue = [124.642, 160.013]\nclass = Obstructive"] ;
0 -> 6 [labeldistance=2.5, labelangle=-45, headlabel="False"] ;
7 [label="node #7\nFVCPreVal <= 1.06\ngini = 0.094\nsamples = 48\nvalue = [3.721, 71.357]\nclass = Obstructive"] ;
6 -> 7 ;
8 [label="node #8\nFEFPostPercent <= 19.0\ngini = 0.403\nsamples = 3\nvalue = [2.791, 1.081]\nclass = Non-obstructive"] ;
7 -> 8 ;
9 [label="node #9\ngini = 0.0\nsamples = 1\nvalue = [0.0, 1.081]\nclass = Obstructive"] ;
8 -> 9 ;
10 [label="node #10\ngini = 0.0\nsamples = 2\nvalue = [2.791, 0.0]\nclass = Non-obstructive"] ;
8 -> 10 ;
11 [label="node #11\nFEFPreVal <= 1.817\ngini = 0.026\nsamples = 45\nvalue = [0.93, 70.276]\nclass = Obstructive"] ;
7 -> 11 ;
12 [label="node #12\ngini = 0.0\nsamples = 43\nvalue = [0.0, 67.032]\nclass = Obstructive"] ;
11 -> 12 ;
13 [label="node #13\ngini = 0.346\nsamples = 2\nvalue = [0.93, 3.244]\nclass = Obstructive"] ;
11 -> 13 ;
14 [label="node #14\nFEFPostVal <= 2.075\ngini = 0.488\nsamples = 128\nvalue = [120.922, 88.656]\nclass = Non-obstructive"] ;
6 -> 14 ;
15 [label="node #15\nFVCPostVal <= 2.355\ngini = 0.431\nsamples = 60\nvalue = [30.696, 67.032]\nclass = Obstructive"] ;
14 -> 15 ;
16 [label="node #16\ngini = 0.495\nsamples = 27\nvalue = [22.324, 18.38]\nclass = Non-obstructive"] ;
15 -> 16 ;
17 [label="node #17\ngini = 0.251\nsamples = 33\nvalue = [8.372, 48.653]\nclass = Obstructive"] ;
15 -> 17 ;
18 [label="node #18\nFEFPostPercent <= 91.5\ngini = 0.312\nsamples = 68\nvalue = [90.226, 21.623]\nclass = Non-obstructive"] ;
14 -> 18 ;
19 [label="node #19\ngini = 0.452\nsamples = 34\nvalue = [39.067, 20.542]\nclass = Non-obstructive"] ;
18 -> 19 ;
20 [label="node #20\ngini = 0.041\nsamples = 34\nvalue = [51.159, 1.081]\nclass = Non-obstructive"] ;
18 -> 20 ;
}