digraph Tree {
node [shape=box] ;
0 [label="node #0\nFEFPreVal <= 1.07\ngini = 0.5\nsamples = 205\nvalue = [167.0, 167.0]\nclass = Non-obstructive"] ;
1 [label="node #1\nFVCPostVal <= 1.685\ngini = 0.249\nsamples = 71\nvalue = [16.194, 94.864]\nclass = Obstructive"] ;
0 -> 1 [labeldistance=2.5, labelangle=45, headlabel="True"] ;
2 [label="node #2\nFEFPostVal <= 0.475\ngini = 0.463\nsamples = 22\nvalue = [14.17, 24.704]\nclass = Obstructive"] ;
1 -> 2 ;
3 [label="node #3\ngini = 0.0\nsamples = 11\nvalue = [0.0, 16.799]\nclass = Obstructive"] ;
2 -> 3 ;
4 [label="node #4\nFEFPrePercent <= 20.5\ngini = 0.46\nsamples = 11\nvalue = [14.17, 7.905]\nclass = Non-obstructive"] ;
2 -> 4 ;
5 [label="node #5\ngini = 0.0\nsamples = 4\nvalue = [8.097, 0.0]\nclass = Non-obstructive"] ;
4 -> 5 ;
6 [label="node #6\ngini = 0.491\nsamples = 7\nvalue = [6.073, 7.905]\nclass = Obstructive"] ;
4 -> 6 ;
7 [label="node #7\nFEFPostPercent <= 73.5\ngini = 0.055\nsamples = 49\nvalue = [2.024, 70.16]\nclass = Obstructive"] ;
1 -> 7 ;
8 [label="node #8\nFVCPostVal <= 1.935\ngini = 0.028\nsamples = 48\nvalue = [1.012, 70.16]\nclass = Obstructive"] ;
7 -> 8 ;
9 [label="node #9\ngini = 0.135\nsamples = 11\nvalue = [1.012, 12.846]\nclass = Obstructive"] ;
8 -> 9 ;
10 [label="node #10\ngini = 0.0\nsamples = 37\nvalue = [0.0, 57.314]\nclass = Obstructive"] ;
8 -> 10 ;
11 [label="node #11\ngini = 0.0\nsamples = 1\nvalue = [1.012, 0.0]\nclass = Non-obstructive"] ;
7 -> 11 ;
12 [label="node #12\nFVCPostPercent <= 72.5\ngini = 0.438\nsamples = 134\nvalue = [150.806, 72.136]\nclass = Non-obstructive"] ;
0 -> 12 [labeldistance=2.5, labelangle=-45, headlabel="False"] ;
13 [label="node #13\nFEFPreVal <= 1.317\ngini = 0.146\nsamples = 79\nvalue = [114.37, 9.882]\nclass = Non-obstructive"] ;
12 -> 13 ;
14 [label="node #14\nFEV1PreVal <= 1.34\ngini = 0.416\nsamples = 11\nvalue = [14.17, 5.929]\nclass = Non-obstructive"] ;
13 -> 14 ;
15 [label="node #15\ngini = 0.0\nsamples = 6\nvalue = [12.145, 0.0]\nclass = Non-obstructive"] ;
14 -> 15 ;
16 [label="node #16\ngini = 0.379\nsamples = 5\nvalue = [2.024, 5.929]\nclass = Obstructive"] ;
14 -> 16 ;
17 [label="node #17\nFEFPostPercent <= 69.5\ngini = 0.073\nsamples = 68\nvalue = [100.2, 3.953]\nclass = Non-obstructive"] ;
13 -> 17 ;
18 [label="node #18\ngini = 0.188\nsamples = 20\nvalue = [25.303, 2.964]\nclass = Non-obstructive"] ;
17 -> 18 ;
19 [label="node #19\ngini = 0.026\nsamples = 48\nvalue = [74.897, 0.988]\nclass = Non-obstructive"] ;
17 -> 19 ;
20 [label="node #20\nFEFPrePercent <= 59.5\ngini = 0.466\nsamples = 55\nvalue = [36.436, 62.254]\nclass = Obstructive"] ;
12 -> 20 ;
21 [label="node #21\nFEV1PreVal <= 1.875\ngini = 0.148\nsamples = 23\nvalue = [3.036, 34.586]\nclass = Obstructive"] ;
20 -> 21 ;
22 [label="node #22\ngini = 0.379\nsamples = 9\nvalue = [3.036, 8.893]\nclass = Obstructive"] ;
21 -> 22 ;
23 [label="node #23\ngini = 0.0\nsamples = 14\nvalue = [0.0, 25.692]\nclass = Obstructive"] ;
21 -> 23 ;
24 [label="node #24\nFEV1PostVal <= 2.98\ngini = 0.496\nsamples = 32\nvalue = [33.4, 27.669]\nclass = Non-obstructive"] ;
20 -> 24 ;
25 [label="node #25\ngini = 0.462\nsamples = 24\nvalue = [31.376, 17.787]\nclass = Non-obstructive"] ;
24 -> 25 ;
26 [label="node #26\ngini = 0.282\nsamples = 8\nvalue = [2.024, 9.882]\nclass = Obstructive"] ;
24 -> 26 ;
}