digraph Tree {
node [shape=box] ;
0 [label="node #0\nFEFPreVal <= 1.135\ngini = 0.5\nsamples = 211\nvalue = [167.0, 167.0]\nclass = Non-obstructive"] ;
1 [label="node #1\nFEFPostPercent <= 24.5\ngini = 0.252\nsamples = 71\nvalue = [16.899, 97.584]\nclass = Obstructive"] ;
0 -> 1 [labeldistance=2.5, labelangle=45, headlabel="True"] ;
2 [label="node #2\nFVCPostPercent <= 37.5\ngini = 0.053\nsamples = 48\nvalue = [1.988, 70.422]\nclass = Obstructive"] ;
1 -> 2 ;
3 [label="node #3\nFEV1PrePercent <= 19.5\ngini = 0.443\nsamples = 3\nvalue = [1.988, 4.024]\nclass = Obstructive"] ;
2 -> 3 ;
4 [label="node #4\ngini = 0.0\nsamples = 1\nvalue = [0.0, 4.024]\nclass = Obstructive"] ;
3 -> 4 ;
5 [label="node #5\ngini = -0.0\nsamples = 2\nvalue = [1.988, 0.0]\nclass = Non-obstructive"] ;
3 -> 5 ;
6 [label="node #6\ngini = 0.0\nsamples = 45\nvalue = [0.0, 66.398]\nclass = Obstructive"] ;
2 -> 6 ;
7 [label="node #7\nFVCPostPercent <= 61.0\ngini = 0.458\nsamples = 23\nvalue = [14.911, 27.163]\nclass = Obstructive"] ;
1 -> 7 ;
8 [label="node #8\nFVCPrePercent <= 36.5\ngini = 0.167\nsamples = 6\nvalue = [9.94, 1.006]\nclass = Non-obstructive"] ;
7 -> 8 ;
9 [label="node #9\ngini = 0.0\nsamples = 1\nvalue = [0.0, 1.006]\nclass = Obstructive"] ;
8 -> 9 ;
10 [label="node #10\ngini = 0.0\nsamples = 5\nvalue = [9.94, 0.0]\nclass = Non-obstructive"] ;
8 -> 10 ;
11 [label="node #11\nFEV1PostPercent <= 66.5\ngini = 0.268\nsamples = 17\nvalue = [4.97, 26.157]\nclass = Obstructive"] ;
7 -> 11 ;
12 [label="node #12\ngini = 0.09\nsamples = 13\nvalue = [0.994, 20.12]\nclass = Obstructive"] ;
11 -> 12 ;
13 [label="node #13\ngini = 0.479\nsamples = 4\nvalue = [3.976, 6.036]\nclass = Obstructive"] ;
11 -> 13 ;
14 [label="node #14\nFVCPostVal <= 2.105\ngini = 0.432\nsamples = 140\nvalue = [150.101, 69.416]\nclass = Non-obstructive"] ;
0 -> 14 [labeldistance=2.5, labelangle=-45, headlabel="False"] ;
15 [label="node #15\nFEFPostVal <= 1.265\ngini = 0.166\nsamples = 68\nvalue = [100.399, 10.06]\nclass = Non-obstructive"] ;
14 -> 15 ;
16 [label="node #16\nFEV1PostVal <= 1.235\ngini = 0.5\nsamples = 4\nvalue = [3.976, 4.024]\nclass = Obstructive"] ;
15 -> 16 ;
17 [label="node #17\ngini = 0.0\nsamples = 2\nvalue = [3.976, 0.0]\nclass = Non-obstructive"] ;
16 -> 17 ;
18 [label="node #18\ngini = 0.0\nsamples = 2\nvalue = [0.0, 4.024]\nclass = Obstructive"] ;
16 -> 18 ;
19 [label="node #19\nFEV1PostPercent <= 77.5\ngini = 0.111\nsamples = 64\nvalue = [96.423, 6.036]\nclass = Non-obstructive"] ;
15 -> 19 ;
20 [label="node #20\ngini = 0.043\nsamples = 57\nvalue = [89.464, 2.012]\nclass = Non-obstructive"] ;
19 -> 20 ;
21 [label="node #21\ngini = 0.464\nsamples = 7\nvalue = [6.958, 4.024]\nclass = Non-obstructive"] ;
19 -> 21 ;
22 [label="node #22\nFEFPostPercent <= 78.5\ngini = 0.496\nsamples = 72\nvalue = [49.702, 59.355]\nclass = Obstructive"] ;
14 -> 22 ;
23 [label="node #23\nFEV1PostPercent <= 69.0\ngini = 0.404\nsamples = 47\nvalue = [18.887, 48.289]\nclass = Obstructive"] ;
22 -> 23 ;
24 [label="node #24\ngini = 0.467\nsamples = 14\nvalue = [11.929, 7.042]\nclass = Non-obstructive"] ;
23 -> 24 ;
25 [label="node #25\ngini = 0.247\nsamples = 33\nvalue = [6.958, 41.247]\nclass = Obstructive"] ;
23 -> 25 ;
26 [label="node #26\nFEV1PostVal <= 3.03\ngini = 0.389\nsamples = 25\nvalue = [30.815, 11.066]\nclass = Non-obstructive"] ;
22 -> 26 ;
27 [label="node #27\ngini = 0.063\nsamples = 20\nvalue = [29.821, 1.006]\nclass = Non-obstructive"] ;
26 -> 27 ;
28 [label="node #28\ngini = 0.164\nsamples = 5\nvalue = [0.994, 10.06]\nclass = Obstructive"] ;
26 -> 28 ;
}