digraph Tree {
node [shape=box] ;
0 [label="node #0\nFVCPrePercent <= 64.5\ngini = 0.5\nsamples = 202\nvalue = [167.0, 167.0]\nclass = Obstructive"] ;
1 [label="node #1\nFEV1PreVal <= 0.84\ngini = 0.478\nsamples = 110\nvalue = [107.506, 70.063]\nclass = Non-obstructive"] ;
0 -> 1 [labeldistance=2.5, labelangle=45, headlabel="True"] ;
2 [label="node #2\nFEFPostVal <= 1.025\ngini = 0.422\nsamples = 39\nvalue = [18.787, 43.19]\nclass = Obstructive"] ;
1 -> 2 ;
3 [label="node #3\nFVCPostVal <= 0.94\ngini = 0.126\nsamples = 29\nvalue = [3.131, 43.19]\nclass = Obstructive"] ;
2 -> 3 ;
4 [label="node #4\ngini = 0.499\nsamples = 3\nvalue = [2.088, 1.92]\nclass = Non-obstructive"] ;
3 -> 4 ;
5 [label="node #5\ngini = 0.048\nsamples = 26\nvalue = [1.044, 41.27]\nclass = Obstructive"] ;
3 -> 5 ;
6 [label="node #6\ngini = 0.0\nsamples = 10\nvalue = [15.656, 0.0]\nclass = Non-obstructive"] ;
2 -> 6 ;
7 [label="node #7\nFEFPostPercent <= 34.5\ngini = 0.357\nsamples = 71\nvalue = [88.719, 26.874]\nclass = Non-obstructive"] ;
1 -> 7 ;
8 [label="node #8\nFEFPostPercent <= 25.0\ngini = 0.382\nsamples = 17\nvalue = [7.306, 21.115]\nclass = Obstructive"] ;
7 -> 8 ;
9 [label="node #9\ngini = -0.0\nsamples = 10\nvalue = [0.0, 14.397]\nclass = Obstructive"] ;
8 -> 9 ;
10 [label="node #10\ngini = 0.499\nsamples = 7\nvalue = [7.306, 6.718]\nclass = Non-obstructive"] ;
8 -> 10 ;
11 [label="node #11\nFEFPreVal <= 0.955\ngini = 0.123\nsamples = 54\nvalue = [81.413, 5.759]\nclass = Non-obstructive"] ;
7 -> 11 ;
12 [label="node #12\ngini = 0.499\nsamples = 2\nvalue = [2.088, 1.92]\nclass = Non-obstructive"] ;
11 -> 12 ;
13 [label="node #13\ngini = 0.088\nsamples = 52\nvalue = [79.325, 3.839]\nclass = Non-obstructive"] ;
11 -> 13 ;
14 [label="node #14\nFEV1PostPercent <= 82.5\ngini = 0.471\nsamples = 92\nvalue = [59.494, 96.937]\nclass = Obstructive"] ;
0 -> 14 [labeldistance=2.5, labelangle=-45, headlabel="False"] ;
15 [label="node #15\nFEFPreVal <= 1.345\ngini = 0.395\nsamples = 63\nvalue = [29.225, 78.701]\nclass = Obstructive"] ;
14 -> 15 ;
16 [label="node #16\ngini = 0.0\nsamples = 27\nvalue = [0.0, 46.069]\nclass = Obstructive"] ;
15 -> 16 ;
17 [label="node #17\nFVCPostPercent <= 72.5\ngini = 0.498\nsamples = 36\nvalue = [29.225, 32.632]\nclass = Obstructive"] ;
15 -> 17 ;
18 [label="node #18\ngini = 0.251\nsamples = 11\nvalue = [16.7, 2.879]\nclass = Non-obstructive"] ;
17 -> 18 ;
19 [label="node #19\ngini = 0.417\nsamples = 25\nvalue = [12.525, 29.753]\nclass = Obstructive"] ;
17 -> 19 ;
20 [label="node #20\nFEFPostPercent <= 54.0\ngini = 0.469\nsamples = 29\nvalue = [30.269, 18.236]\nclass = Non-obstructive"] ;
14 -> 20 ;
21 [label="node #21\ngini = 0.0\nsamples = 5\nvalue = [0.0, 8.638]\nclass = Obstructive"] ;
20 -> 21 ;
22 [label="node #22\nFEV1PreVal <= 2.24\ngini = 0.366\nsamples = 24\nvalue = [30.269, 9.598]\nclass = Non-obstructive"] ;
20 -> 22 ;
23 [label="node #23\ngini = 0.168\nsamples = 11\nvalue = [18.787, 1.92]\nclass = Non-obstructive"] ;
22 -> 23 ;
24 [label="node #24\ngini = 0.48\nsamples = 13\nvalue = [11.481, 7.678]\nclass = Non-obstructive"] ;
22 -> 24 ;
}