digraph Tree {
node [shape=box] ;
0 [label="node #0\nFEV1PrePercent <= 32.5\ngini = 0.5\nsamples = 206\nvalue = [167.0, 167.0]\nclass = Non-obstructive"] ;
1 [label="node #1\nFEFPrePercent <= 42.0\ngini = 0.087\nsamples = 26\nvalue = [1.931, 40.453]\nclass = Obstructive"] ;
0 -> 1 [labeldistance=2.5, labelangle=45, headlabel="True"] ;
2 [label="node #2\ngini = 0.0\nsamples = 24\nvalue = [0.0, 40.453]\nclass = Obstructive"] ;
1 -> 2 ;
3 [label="node #3\ngini = 0.0\nsamples = 2\nvalue = [1.931, 0.0]\nclass = Non-obstructive"] ;
1 -> 3 ;
4 [label="node #4\nFEFPrePercent <= 54.5\ngini = 0.491\nsamples = 180\nvalue = [165.069, 126.547]\nclass = Non-obstructive"] ;
0 -> 4 [labeldistance=2.5, labelangle=-45, headlabel="False"] ;
5 [label="node #5\nFVCPostPercent <= 64.5\ngini = 0.415\nsamples = 75\nvalue = [36.682, 88.168]\nclass = Obstructive"] ;
4 -> 5 ;
6 [label="node #6\nFEFPostVal <= 0.745\ngini = 0.488\nsamples = 23\nvalue = [21.237, 15.559]\nclass = Non-obstructive"] ;
5 -> 6 ;
7 [label="node #7\ngini = 0.0\nsamples = 6\nvalue = [0.0, 10.373]\nclass = Obstructive"] ;
6 -> 7 ;
8 [label="node #8\ngini = 0.316\nsamples = 17\nvalue = [21.237, 5.186]\nclass = Non-obstructive"] ;
6 -> 8 ;
9 [label="node #9\nFEV1PostPercent <= 82.5\ngini = 0.289\nsamples = 52\nvalue = [15.445, 72.609]\nclass = Obstructive"] ;
5 -> 9 ;
10 [label="node #10\ngini = 0.156\nsamples = 41\nvalue = [5.792, 62.236]\nclass = Obstructive"] ;
9 -> 10 ;
11 [label="node #11\ngini = 0.499\nsamples = 11\nvalue = [9.653, 10.373]\nclass = Obstructive"] ;
9 -> 11 ;
12 [label="node #12\nFVCPostPercent <= 72.5\ngini = 0.354\nsamples = 105\nvalue = [128.387, 38.379]\nclass = Non-obstructive"] ;
4 -> 12 ;
13 [label="node #13\nFEFPostVal <= 1.265\ngini = 0.159\nsamples = 64\nvalue = [97.497, 9.335]\nclass = Non-obstructive"] ;
12 -> 13 ;
14 [label="node #14\ngini = 0.499\nsamples = 2\nvalue = [1.931, 2.075]\nclass = Obstructive"] ;
13 -> 14 ;
15 [label="node #15\ngini = 0.131\nsamples = 62\nvalue = [95.566, 7.261]\nclass = Non-obstructive"] ;
13 -> 15 ;
16 [label="node #16\nFEFPostVal <= 3.71\ngini = 0.5\nsamples = 41\nvalue = [30.89, 29.043]\nclass = Non-obstructive"] ;
12 -> 16 ;
17 [label="node #17\ngini = 0.494\nsamples = 38\nvalue = [30.89, 24.894]\nclass = Non-obstructive"] ;
16 -> 17 ;
18 [label="node #18\ngini = 0.0\nsamples = 3\nvalue = [0.0, 4.149]\nclass = Obstructive"] ;
16 -> 18 ;
}