digraph Tree {
node [shape=box] ;
0 [label="node #0\nFEFPrePercent <= 67.5\ngini = 0.5\nsamples = 205\nvalue = [167.0, 167.0]\nclass = Non-obstructive"] ;
1 [label="node #1\nFEFPostVal <= 0.865\ngini = 0.395\nsamples = 128\nvalue = [56.679, 152.178]\nclass = Obstructive"] ;
0 -> 1 [labeldistance=2.5, labelangle=45, headlabel="True"] ;
2 [label="node #2\nFVCPreVal <= 1.06\ngini = 0.164\nsamples = 58\nvalue = [9.109, 91.899]\nclass = Obstructive"] ;
1 -> 2 ;
3 [label="node #3\nFEFPostPercent <= 21.0\ngini = 0.499\nsamples = 7\nvalue = [7.085, 7.905]\nclass = Obstructive"] ;
2 -> 3 ;
4 [label="node #4\ngini = 0.201\nsamples = 5\nvalue = [1.012, 7.905]\nclass = Obstructive"] ;
3 -> 4 ;
5 [label="node #5\ngini = -0.0\nsamples = 2\nvalue = [6.073, 0.0]\nclass = Non-obstructive"] ;
3 -> 5 ;
6 [label="node #6\nFEFPostVal <= 0.725\ngini = 0.046\nsamples = 51\nvalue = [2.024, 83.994]\nclass = Obstructive"] ;
2 -> 6 ;
7 [label="node #7\ngini = 0.0\nsamples = 44\nvalue = [0.0, 74.112]\nclass = Obstructive"] ;
6 -> 7 ;
8 [label="node #8\ngini = 0.282\nsamples = 7\nvalue = [2.024, 9.882]\nclass = Obstructive"] ;
6 -> 8 ;
9 [label="node #9\nFEV1PostVal <= 1.655\ngini = 0.493\nsamples = 70\nvalue = [47.57, 60.278]\nclass = Obstructive"] ;
1 -> 9 ;
10 [label="node #10\nFEV1PreVal <= 1.315\ngini = 0.177\nsamples = 19\nvalue = [27.327, 2.964]\nclass = Non-obstructive"] ;
9 -> 10 ;
11 [label="node #11\ngini = 0.0\nsamples = 11\nvalue = [19.23, 0.0]\nclass = Non-obstructive"] ;
10 -> 11 ;
12 [label="node #12\ngini = 0.392\nsamples = 8\nvalue = [8.097, 2.964]\nclass = Non-obstructive"] ;
10 -> 12 ;
13 [label="node #13\nFEFPreVal <= 2.68\ngini = 0.386\nsamples = 51\nvalue = [20.242, 57.314]\nclass = Obstructive"] ;
9 -> 13 ;
14 [label="node #14\ngini = 0.325\nsamples = 46\nvalue = [14.17, 55.337]\nclass = Obstructive"] ;
13 -> 14 ;
15 [label="node #15\ngini = 0.37\nsamples = 5\nvalue = [6.073, 1.976]\nclass = Non-obstructive"] ;
13 -> 15 ;
16 [label="node #16\nFEV1PreVal <= 2.85\ngini = 0.209\nsamples = 77\nvalue = [110.321, 14.822]\nclass = Non-obstructive"] ;
0 -> 16 [labeldistance=2.5, labelangle=-45, headlabel="False"] ;
17 [label="node #17\nFEFPostVal <= 0.695\ngini = 0.139\nsamples = 73\nvalue = [109.309, 8.893]\nclass = Non-obstructive"] ;
16 -> 17 ;
18 [label="node #18\ngini = 0.0\nsamples = 1\nvalue = [0.0, 1.976]\nclass = Obstructive"] ;
17 -> 18 ;
19 [label="node #19\nFEFPreVal <= 2.405\ngini = 0.112\nsamples = 72\nvalue = [109.309, 6.917]\nclass = Non-obstructive"] ;
17 -> 19 ;
20 [label="node #20\ngini = 0.273\nsamples = 20\nvalue = [30.364, 5.929]\nclass = Non-obstructive"] ;
19 -> 20 ;
21 [label="node #21\ngini = 0.024\nsamples = 52\nvalue = [78.945, 0.988]\nclass = Non-obstructive"] ;
19 -> 21 ;
22 [label="node #22\nFVCPreVal <= 4.055\ngini = 0.249\nsamples = 4\nvalue = [1.012, 5.929]\nclass = Obstructive"] ;
16 -> 22 ;
23 [label="node #23\ngini = 0.0\nsamples = 3\nvalue = [0.0, 5.929]\nclass = Obstructive"] ;
22 -> 23 ;
24 [label="node #24\ngini = 0.0\nsamples = 1\nvalue = [1.012, 0.0]\nclass = Non-obstructive"] ;
22 -> 24 ;
}