digraph Tree {
node [shape=box] ;
0 [label="node #0\nFEFPreVal <= 1.145\ngini = 0.5\nsamples = 205\nvalue = [167.0, 167.0]\nclass = Non-obstructive"] ;
1 [label="node #1\nFVCPostVal <= 1.525\ngini = 0.297\nsamples = 72\nvalue = [21.255, 95.852]\nclass = Obstructive"] ;
0 -> 1 [labeldistance=2.5, labelangle=45, headlabel="True"] ;
2 [label="node #2\nFEFPostVal <= 0.47\ngini = 0.492\nsamples = 15\nvalue = [15.182, 11.858]\nclass = Non-obstructive"] ;
1 -> 2 ;
3 [label="node #3\ngini = 0.0\nsamples = 4\nvalue = [0.0, 6.917]\nclass = Obstructive"] ;
2 -> 3 ;
4 [label="node #4\nFEFPrePercent <= 54.5\ngini = 0.37\nsamples = 11\nvalue = [15.182, 4.941]\nclass = Non-obstructive"] ;
2 -> 4 ;
5 [label="node #5\ngini = 0.273\nsamples = 10\nvalue = [15.182, 2.964]\nclass = Non-obstructive"] ;
4 -> 5 ;
6 [label="node #6\ngini = -0.0\nsamples = 1\nvalue = [0.0, 1.976]\nclass = Obstructive"] ;
4 -> 6 ;
7 [label="node #7\nFVCPostVal <= 1.7\ngini = 0.126\nsamples = 57\nvalue = [6.073, 83.994]\nclass = Obstructive"] ;
1 -> 7 ;
8 [label="node #8\nFVCPostVal <= 1.665\ngini = 0.35\nsamples = 7\nvalue = [4.048, 13.834]\nclass = Obstructive"] ;
7 -> 8 ;
9 [label="node #9\ngini = 0.0\nsamples = 5\nvalue = [0.0, 8.893]\nclass = Obstructive"] ;
8 -> 9 ;
10 [label="node #10\ngini = 0.495\nsamples = 2\nvalue = [4.048, 4.941]\nclass = Obstructive"] ;
8 -> 10 ;
11 [label="node #11\nFEV1PostVal <= 2.42\ngini = 0.055\nsamples = 50\nvalue = [2.024, 70.16]\nclass = Obstructive"] ;
7 -> 11 ;
12 [label="node #12\ngini = 0.028\nsamples = 49\nvalue = [1.012, 70.16]\nclass = Obstructive"] ;
11 -> 12 ;
13 [label="node #13\ngini = 0.0\nsamples = 1\nvalue = [1.012, 0.0]\nclass = Non-obstructive"] ;
11 -> 13 ;
14 [label="node #14\nFVCPrePercent <= 59.5\ngini = 0.441\nsamples = 133\nvalue = [145.745, 71.148]\nclass = Non-obstructive"] ;
0 -> 14 [labeldistance=2.5, labelangle=-45, headlabel="False"] ;
15 [label="node #15\nFEV1PostPercent <= 45.5\ngini = 0.113\nsamples = 52\nvalue = [76.921, 4.941]\nclass = Non-obstructive"] ;
14 -> 15 ;
16 [label="node #16\nFEFPostVal <= 1.185\ngini = 0.248\nsamples = 17\nvalue = [23.279, 3.953]\nclass = Non-obstructive"] ;
15 -> 16 ;
17 [label="node #17\ngini = 0.0\nsamples = 1\nvalue = [0.0, 3.953]\nclass = Obstructive"] ;
16 -> 17 ;
18 [label="node #18\ngini = 0.0\nsamples = 16\nvalue = [23.279, 0.0]\nclass = Non-obstructive"] ;
16 -> 18 ;
19 [label="node #19\nFVCPrePercent <= 54.5\ngini = 0.036\nsamples = 35\nvalue = [53.642, 0.988]\nclass = Non-obstructive"] ;
15 -> 19 ;
20 [label="node #20\ngini = 0.0\nsamples = 27\nvalue = [41.497, 0.0]\nclass = Non-obstructive"] ;
19 -> 20 ;
21 [label="node #21\ngini = 0.139\nsamples = 8\nvalue = [12.145, 0.988]\nclass = Non-obstructive"] ;
19 -> 21 ;
22 [label="node #22\nFEFPrePercent <= 59.5\ngini = 0.5\nsamples = 81\nvalue = [68.824, 66.207]\nclass = Non-obstructive"] ;
14 -> 22 ;
23 [label="node #23\nFEFPreVal <= 1.185\ngini = 0.259\nsamples = 22\nvalue = [6.073, 33.598]\nclass = Obstructive"] ;
22 -> 23 ;
24 [label="node #24\ngini = 0.0\nsamples = 1\nvalue = [2.024, 0.0]\nclass = Non-obstructive"] ;
23 -> 24 ;
25 [label="node #25\ngini = 0.192\nsamples = 21\nvalue = [4.048, 33.598]\nclass = Obstructive"] ;
23 -> 25 ;
26 [label="node #26\nFEV1PostVal <= 2.965\ngini = 0.45\nsamples = 59\nvalue = [62.752, 32.609]\nclass = Non-obstructive"] ;
22 -> 26 ;
27 [label="node #27\ngini = 0.361\nsamples = 48\nvalue = [60.727, 18.775]\nclass = Non-obstructive"] ;
26 -> 27 ;
28 [label="node #28\ngini = 0.223\nsamples = 11\nvalue = [2.024, 13.834]\nclass = Obstructive"] ;
26 -> 28 ;
}