digraph Tree {
node [shape=box] ;
0 [label="node #0\nFEFPrePercent <= 35.275\ngini = 0.5\nsamples = 211\nvalue = [167.0, 167.0]\nclass = Obstructive"] ;
1 [label="node #1\nFEFPostPercent <= 45.0\ngini = 0.212\nsamples = 73\nvalue = [13.917, 101.608]\nclass = Obstructive"] ;
0 -> 1 [labeldistance=2.5, labelangle=45, headlabel="True"] ;
2 [label="node #2\nFVCPostVal <= 1.415\ngini = 0.18\nsamples = 69\nvalue = [10.935, 98.59]\nclass = Obstructive"] ;
1 -> 2 ;
3 [label="node #3\nFEFPreVal <= 0.335\ngini = 0.491\nsamples = 10\nvalue = [7.952, 6.036]\nclass = Non-obstructive"] ;
2 -> 3 ;
4 [label="node #4\ngini = 0.0\nsamples = 3\nvalue = [0.0, 3.018]\nclass = Obstructive"] ;
3 -> 4 ;
5 [label="node #5\ngini = 0.399\nsamples = 7\nvalue = [7.952, 3.018]\nclass = Non-obstructive"] ;
3 -> 5 ;
6 [label="node #6\nFVCPostVal <= 2.14\ngini = 0.06\nsamples = 59\nvalue = [2.982, 92.554]\nclass = Obstructive"] ;
2 -> 6 ;
7 [label="node #7\ngini = 0.131\nsamples = 28\nvalue = [2.982, 39.235]\nclass = Obstructive"] ;
6 -> 7 ;
8 [label="node #8\ngini = 0.0\nsamples = 31\nvalue = [0.0, 53.319]\nclass = Obstructive"] ;
6 -> 8 ;
9 [label="node #9\nFEFPostPercent <= 51.5\ngini = 0.5\nsamples = 4\nvalue = [2.982, 3.018]\nclass = Obstructive"] ;
1 -> 9 ;
10 [label="node #10\ngini = 0.0\nsamples = 2\nvalue = [2.982, 0.0]\nclass = Non-obstructive"] ;
9 -> 10 ;
11 [label="node #11\ngini = -0.0\nsamples = 2\nvalue = [0.0, 3.018]\nclass = Obstructive"] ;
9 -> 11 ;
12 [label="node #12\nFVCPostVal <= 2.22\ngini = 0.419\nsamples = 138\nvalue = [153.083, 65.392]\nclass = Non-obstructive"] ;
0 -> 12 [labeldistance=2.5, labelangle=-45, headlabel="False"] ;
13 [label="node #13\nFEV1PrePercent <= 17.78\ngini = 0.188\nsamples = 77\nvalue = [111.333, 13.078]\nclass = Non-obstructive"] ;
12 -> 13 ;
14 [label="node #14\ngini = 0.0\nsamples = 1\nvalue = [0.0, 3.018]\nclass = Obstructive"] ;
13 -> 14 ;
15 [label="node #15\nFEV1PostVal <= 1.97\ngini = 0.152\nsamples = 76\nvalue = [111.333, 10.06]\nclass = Non-obstructive"] ;
13 -> 15 ;
16 [label="node #16\ngini = 0.139\nsamples = 75\nvalue = [111.333, 9.054]\nclass = Non-obstructive"] ;
15 -> 16 ;
17 [label="node #17\ngini = 0.0\nsamples = 1\nvalue = [0.0, 1.006]\nclass = Obstructive"] ;
15 -> 17 ;
18 [label="node #18\nFEFPostVal <= 1.72\ngini = 0.494\nsamples = 61\nvalue = [41.75, 52.313]\nclass = Obstructive"] ;
12 -> 18 ;
19 [label="node #19\nFEFPrePercent <= 44.0\ngini = 0.134\nsamples = 6\nvalue = [12.923, 1.006]\nclass = Non-obstructive"] ;
18 -> 19 ;
20 [label="node #20\ngini = 0.0\nsamples = 1\nvalue = [0.0, 1.006]\nclass = Obstructive"] ;
19 -> 20 ;
21 [label="node #21\ngini = 0.0\nsamples = 5\nvalue = [12.923, 0.0]\nclass = Non-obstructive"] ;
19 -> 21 ;
22 [label="node #22\nFEFPreVal <= 2.85\ngini = 0.461\nsamples = 55\nvalue = [28.827, 51.307]\nclass = Obstructive"] ;
18 -> 22 ;
23 [label="node #23\ngini = 0.338\nsamples = 32\nvalue = [9.94, 36.217]\nclass = Obstructive"] ;
22 -> 23 ;
24 [label="node #24\ngini = 0.494\nsamples = 23\nvalue = [18.887, 15.09]\nclass = Non-obstructive"] ;
22 -> 24 ;
}