digraph Tree {
node [shape=box] ;
0 [label="node #0\nFEFPrePercent <= 42.5\ngini = 0.5\nsamples = 215\nvalue = [166.5, 166.5]\nclass = Obstructive"] ;
1 [label="node #1\nFVCPostVal <= 1.21\ngini = 0.231\nsamples = 78\nvalue = [16.361, 106.144]\nclass = Obstructive"] ;
0 -> 1 [labeldistance=2.5, labelangle=45, headlabel="True"] ;
2 [label="node #2\ngini = 0.0\nsamples = 5\nvalue = [7.699, 0.0]\nclass = Non-obstructive"] ;
1 -> 2 ;
3 [label="node #3\nFVCPostPercent <= 34.5\ngini = 0.14\nsamples = 73\nvalue = [8.662, 106.144]\nclass = Obstructive"] ;
1 -> 3 ;
4 [label="node #4\ngini = 0.0\nsamples = 1\nvalue = [0.962, 0.0]\nclass = Non-obstructive"] ;
3 -> 4 ;
5 [label="node #5\nFEFPreVal <= 1.575\ngini = 0.126\nsamples = 72\nvalue = [7.699, 106.144]\nclass = Obstructive"] ;
3 -> 5 ;
6 [label="node #6\ngini = 0.112\nsamples = 71\nvalue = [6.737, 106.144]\nclass = Obstructive"] ;
5 -> 6 ;
7 [label="node #7\ngini = 0.0\nsamples = 1\nvalue = [0.962, 0.0]\nclass = Non-obstructive"] ;
5 -> 7 ;
8 [label="node #8\nFVCPostVal <= 2.095\ngini = 0.409\nsamples = 137\nvalue = [150.139, 60.356]\nclass = Non-obstructive"] ;
0 -> 8 [labeldistance=2.5, labelangle=-45, headlabel="False"] ;
9 [label="node #9\nFVCPrePercent <= 82.0\ngini = 0.145\nsamples = 66\nvalue = [97.205, 8.325]\nclass = Non-obstructive"] ;
8 -> 9 ;
10 [label="node #10\nFEFPreVal <= 1.135\ngini = 0.041\nsamples = 64\nvalue = [97.205, 2.081]\nclass = Non-obstructive"] ;
9 -> 10 ;
11 [label="node #11\ngini = 0.0\nsamples = 1\nvalue = [0.0, 1.041]\nclass = Obstructive"] ;
10 -> 11 ;
12 [label="node #12\ngini = 0.021\nsamples = 63\nvalue = [97.205, 1.041]\nclass = Non-obstructive"] ;
10 -> 12 ;
13 [label="node #13\ngini = -0.0\nsamples = 2\nvalue = [0.0, 6.244]\nclass = Obstructive"] ;
9 -> 13 ;
14 [label="node #14\nFVCPostPercent <= 80.5\ngini = 0.5\nsamples = 71\nvalue = [52.934, 52.031]\nclass = Non-obstructive"] ;
8 -> 14 ;
15 [label="node #15\nFEV1PrePercent <= 61.5\ngini = 0.307\nsamples = 36\nvalue = [35.61, 8.325]\nclass = Non-obstructive"] ;
14 -> 15 ;
16 [label="node #16\ngini = 0.499\nsamples = 9\nvalue = [5.775, 6.244]\nclass = Obstructive"] ;
15 -> 16 ;
17 [label="node #17\ngini = 0.122\nsamples = 27\nvalue = [29.835, 2.081]\nclass = Non-obstructive"] ;
15 -> 17 ;
18 [label="node #18\nFEFPostPercent <= 106.0\ngini = 0.407\nsamples = 35\nvalue = [17.324, 43.706]\nclass = Obstructive"] ;
14 -> 18 ;
19 [label="node #19\ngini = 0.285\nsamples = 28\nvalue = [8.662, 41.625]\nclass = Obstructive"] ;
18 -> 19 ;
20 [label="node #20\ngini = 0.312\nsamples = 7\nvalue = [8.662, 2.081]\nclass = Non-obstructive"] ;
18 -> 20 ;
}