digraph Tree {
node [shape=box] ;
0 [label="node #0\nFEFPostPercent <= 45.5\ngini = 0.5\nsamples = 209\nvalue = [167.0, 167.0]\nclass = Obstructive"] ;
1 [label="node #1\nFEFPrePercent <= 41.0\ngini = 0.216\nsamples = 74\nvalue = [14.522, 103.289]\nclass = Obstructive"] ;
0 -> 1 [labeldistance=2.5, labelangle=45, headlabel="True"] ;
2 [label="node #2\nFEFPostVal <= 1.315\ngini = 0.181\nsamples = 70\nvalue = [11.41, 102.324]\nclass = Obstructive"] ;
1 -> 2 ;
3 [label="node #3\nFVCPostPercent <= 41.5\ngini = 0.13\nsamples = 62\nvalue = [7.261, 96.532]\nclass = Obstructive"] ;
2 -> 3 ;
4 [label="node #4\ngini = 0.499\nsamples = 5\nvalue = [4.149, 3.861]\nclass = Non-obstructive"] ;
3 -> 4 ;
5 [label="node #5\ngini = 0.063\nsamples = 57\nvalue = [3.112, 92.671]\nclass = Obstructive"] ;
3 -> 5 ;
6 [label="node #6\nFVCPostPercent <= 65.0\ngini = 0.486\nsamples = 8\nvalue = [4.149, 5.792]\nclass = Obstructive"] ;
2 -> 6 ;
7 [label="node #7\ngini = 0.0\nsamples = 2\nvalue = [4.149, 0.0]\nclass = Non-obstructive"] ;
6 -> 7 ;
8 [label="node #8\ngini = 0.0\nsamples = 6\nvalue = [0.0, 5.792]\nclass = Obstructive"] ;
6 -> 8 ;
9 [label="node #9\nFEV1PreVal <= 1.23\ngini = 0.361\nsamples = 4\nvalue = [3.112, 0.965]\nclass = Non-obstructive"] ;
1 -> 9 ;
10 [label="node #10\ngini = 0.0\nsamples = 2\nvalue = [2.075, 0.0]\nclass = Non-obstructive"] ;
9 -> 10 ;
11 [label="node #11\nFVCPostVal <= 2.27\ngini = 0.499\nsamples = 2\nvalue = [1.037, 0.965]\nclass = Non-obstructive"] ;
9 -> 11 ;
12 [label="node #12\ngini = 0.0\nsamples = 1\nvalue = [0.0, 0.965]\nclass = Obstructive"] ;
11 -> 12 ;
13 [label="node #13\ngini = -0.0\nsamples = 1\nvalue = [1.037, 0.0]\nclass = Non-obstructive"] ;
11 -> 13 ;
14 [label="node #14\nFEV1PostVal <= 1.905\ngini = 0.416\nsamples = 135\nvalue = [152.478, 63.711]\nclass = Non-obstructive"] ;
0 -> 14 [labeldistance=2.5, labelangle=-45, headlabel="False"] ;
15 [label="node #15\nFVCPrePercent <= 76.0\ngini = 0.133\nsamples = 75\nvalue = [113.062, 8.688]\nclass = Non-obstructive"] ;
14 -> 15 ;
16 [label="node #16\nFEV1PreVal <= 1.715\ngini = 0.053\nsamples = 67\nvalue = [102.689, 2.896]\nclass = Non-obstructive"] ;
15 -> 16 ;
17 [label="node #17\ngini = 0.023\nsamples = 53\nvalue = [82.981, 0.965]\nclass = Non-obstructive"] ;
16 -> 17 ;
18 [label="node #18\ngini = 0.163\nsamples = 14\nvalue = [19.708, 1.931]\nclass = Non-obstructive"] ;
16 -> 18 ;
19 [label="node #19\nFVCPreVal <= 2.055\ngini = 0.46\nsamples = 8\nvalue = [10.373, 5.792]\nclass = Non-obstructive"] ;
15 -> 19 ;
20 [label="node #20\ngini = 0.0\nsamples = 2\nvalue = [0.0, 4.827]\nclass = Obstructive"] ;
19 -> 20 ;
21 [label="node #21\ngini = 0.156\nsamples = 6\nvalue = [10.373, 0.965]\nclass = Non-obstructive"] ;
19 -> 21 ;
22 [label="node #22\nFEV1PrePercent <= 101.0\ngini = 0.486\nsamples = 60\nvalue = [39.416, 55.023]\nclass = Obstructive"] ;
14 -> 22 ;
23 [label="node #23\nFVCPostPercent <= 86.5\ngini = 0.459\nsamples = 53\nvalue = [30.081, 54.058]\nclass = Obstructive"] ;
22 -> 23 ;
24 [label="node #24\ngini = 0.496\nsamples = 42\nvalue = [30.081, 35.717]\nclass = Obstructive"] ;
23 -> 24 ;
25 [label="node #25\ngini = 0.0\nsamples = 11\nvalue = [0.0, 18.341]\nclass = Obstructive"] ;
23 -> 25 ;
26 [label="node #26\nFEV1PostVal <= 3.95\ngini = 0.17\nsamples = 7\nvalue = [9.335, 0.965]\nclass = Non-obstructive"] ;
22 -> 26 ;
27 [label="node #27\ngini = 0.0\nsamples = 6\nvalue = [9.335, 0.0]\nclass = Non-obstructive"] ;
26 -> 27 ;
28 [label="node #28\ngini = -0.0\nsamples = 1\nvalue = [0.0, 0.965]\nclass = Obstructive"] ;
26 -> 28 ;
}