digraph Tree {
node [shape=box] ;
0 [label="node #0\nFEFPreVal <= 1.145\ngini = 0.5\nsamples = 211\nvalue = [167.0, 167.0]\nclass = Non-obstructive"] ;
1 [label="node #1\nFEFPrePercent <= 34.5\ngini = 0.243\nsamples = 73\nvalue = [16.899, 102.614]\nclass = Obstructive"] ;
0 -> 1 [labeldistance=2.5, labelangle=45, headlabel="True"] ;
2 [label="node #2\nFVCPostPercent <= 38.0\ngini = 0.122\nsamples = 66\nvalue = [6.958, 99.596]\nclass = Obstructive"] ;
1 -> 2 ;
3 [label="node #3\nFEV1PrePercent <= 19.0\ngini = 0.446\nsamples = 3\nvalue = [1.988, 1.006]\nclass = Non-obstructive"] ;
2 -> 3 ;
4 [label="node #4\ngini = 0.0\nsamples = 1\nvalue = [0.0, 1.006]\nclass = Obstructive"] ;
3 -> 4 ;
5 [label="node #5\ngini = 0.0\nsamples = 2\nvalue = [1.988, 0.0]\nclass = Non-obstructive"] ;
3 -> 5 ;
6 [label="node #6\nFEV1PrePercent <= 40.5\ngini = 0.091\nsamples = 63\nvalue = [4.97, 98.59]\nclass = Obstructive"] ;
2 -> 6 ;
7 [label="node #7\ngini = -0.0\nsamples = 32\nvalue = [0.0, 54.325]\nclass = Obstructive"] ;
6 -> 7 ;
8 [label="node #8\ngini = 0.182\nsamples = 31\nvalue = [4.97, 44.265]\nclass = Obstructive"] ;
6 -> 8 ;
9 [label="node #9\nFEV1PreVal <= 1.46\ngini = 0.357\nsamples = 7\nvalue = [9.94, 3.018]\nclass = Non-obstructive"] ;
1 -> 9 ;
10 [label="node #10\nFVCPostVal <= 1.22\ngini = 0.491\nsamples = 4\nvalue = [3.976, 3.018]\nclass = Non-obstructive"] ;
9 -> 10 ;
11 [label="node #11\ngini = 0.0\nsamples = 1\nvalue = [3.976, 0.0]\nclass = Non-obstructive"] ;
10 -> 11 ;
12 [label="node #12\ngini = 0.0\nsamples = 3\nvalue = [0.0, 3.018]\nclass = Obstructive"] ;
10 -> 12 ;
13 [label="node #13\ngini = -0.0\nsamples = 3\nvalue = [5.964, 0.0]\nclass = Non-obstructive"] ;
9 -> 13 ;
14 [label="node #14\nFVCPostVal <= 2.165\ngini = 0.42\nsamples = 138\nvalue = [150.101, 64.386]\nclass = Non-obstructive"] ;
0 -> 14 [labeldistance=2.5, labelangle=-45, headlabel="False"] ;
15 [label="node #15\nFEV1PostVal <= 1.93\ngini = 0.105\nsamples = 68\nvalue = [102.387, 6.036]\nclass = Non-obstructive"] ;
14 -> 15 ;
16 [label="node #16\nFEFPrePercent <= 61.5\ngini = 0.089\nsamples = 67\nvalue = [102.387, 5.03]\nclass = Non-obstructive"] ;
15 -> 16 ;
17 [label="node #17\ngini = 0.273\nsamples = 19\nvalue = [25.845, 5.03]\nclass = Non-obstructive"] ;
16 -> 17 ;
18 [label="node #18\ngini = 0.0\nsamples = 48\nvalue = [76.542, 0.0]\nclass = Non-obstructive"] ;
16 -> 18 ;
19 [label="node #19\ngini = 0.0\nsamples = 1\nvalue = [0.0, 1.006]\nclass = Obstructive"] ;
15 -> 19 ;
20 [label="node #20\nFEV1PostVal <= 2.125\ngini = 0.495\nsamples = 70\nvalue = [47.714, 58.349]\nclass = Obstructive"] ;
14 -> 20 ;
21 [label="node #21\nFEV1PostVal <= 1.805\ngini = 0.295\nsamples = 21\nvalue = [5.964, 27.163]\nclass = Obstructive"] ;
20 -> 21 ;
22 [label="node #22\ngini = 0.481\nsamples = 4\nvalue = [2.982, 2.012]\nclass = Non-obstructive"] ;
21 -> 22 ;
23 [label="node #23\ngini = 0.19\nsamples = 17\nvalue = [2.982, 25.151]\nclass = Obstructive"] ;
21 -> 23 ;
24 [label="node #24\nFVCPostVal <= 3.335\ngini = 0.49\nsamples = 49\nvalue = [41.75, 31.187]\nclass = Non-obstructive"] ;
20 -> 24 ;
25 [label="node #25\ngini = 0.327\nsamples = 31\nvalue = [38.768, 10.06]\nclass = Non-obstructive"] ;
24 -> 25 ;
26 [label="node #26\ngini = 0.217\nsamples = 18\nvalue = [2.982, 21.127]\nclass = Obstructive"] ;
24 -> 26 ;
}