digraph Tree {
node [shape=box] ;
0 [label="node #0\nFEFPrePercent <= 48.5\ngini = 0.5\nsamples = 215\nvalue = [167.0, 167.0]\nclass = Obstructive"] ;
1 [label="node #1\nFEFPostVal <= 0.955\ngini = 0.293\nsamples = 94\nvalue = [24.954, 114.813]\nclass = Obstructive"] ;
0 -> 1 [labeldistance=2.5, labelangle=45, headlabel="True"] ;
2 [label="node #2\nFVCPrePercent <= 63.5\ngini = 0.056\nsamples = 45\nvalue = [1.92, 64.713]\nclass = Obstructive"] ;
1 -> 2 ;
3 [label="node #3\ngini = 0.0\nsamples = 35\nvalue = [0.0, 49.056]\nclass = Obstructive"] ;
2 -> 3 ;
4 [label="node #4\nFVCPostVal <= 1.75\ngini = 0.195\nsamples = 10\nvalue = [1.92, 15.656]\nclass = Obstructive"] ;
2 -> 4 ;
5 [label="node #5\ngini = 0.0\nsamples = 1\nvalue = [0.96, 0.0]\nclass = Non-obstructive"] ;
4 -> 5 ;
6 [label="node #6\ngini = 0.109\nsamples = 9\nvalue = [0.96, 15.656]\nclass = Obstructive"] ;
4 -> 6 ;
7 [label="node #7\nFVCPreVal <= 1.555\ngini = 0.432\nsamples = 49\nvalue = [23.034, 50.1]\nclass = Obstructive"] ;
1 -> 7 ;
8 [label="node #8\ngini = 0.0\nsamples = 8\nvalue = [11.517, 0.0]\nclass = Non-obstructive"] ;
7 -> 8 ;
9 [label="node #9\nFVCPostVal <= 2.245\ngini = 0.304\nsamples = 41\nvalue = [11.517, 50.1]\nclass = Obstructive"] ;
7 -> 9 ;
10 [label="node #10\ngini = 0.495\nsamples = 11\nvalue = [7.678, 9.394]\nclass = Obstructive"] ;
9 -> 10 ;
11 [label="node #11\ngini = 0.158\nsamples = 30\nvalue = [3.839, 40.706]\nclass = Obstructive"] ;
9 -> 11 ;
12 [label="node #12\nFVCPostPercent <= 70.5\ngini = 0.393\nsamples = 121\nvalue = [142.046, 52.188]\nclass = Non-obstructive"] ;
0 -> 12 [labeldistance=2.5, labelangle=-45, headlabel="False"] ;
13 [label="node #13\nFEV1PostVal <= 2.45\ngini = 0.088\nsamples = 71\nvalue = [108.454, 5.219]\nclass = Non-obstructive"] ;
12 -> 13 ;
14 [label="node #14\nFEV1PrePercent <= 90.5\ngini = 0.056\nsamples = 68\nvalue = [105.575, 3.131]\nclass = Non-obstructive"] ;
13 -> 14 ;
15 [label="node #15\ngini = 0.038\nsamples = 67\nvalue = [105.575, 2.088]\nclass = Non-obstructive"] ;
14 -> 15 ;
16 [label="node #16\ngini = 0.0\nsamples = 1\nvalue = [0.0, 1.044]\nclass = Obstructive"] ;
14 -> 16 ;
17 [label="node #17\nFEFPreVal <= 2.93\ngini = 0.487\nsamples = 3\nvalue = [2.879, 2.088]\nclass = Non-obstructive"] ;
13 -> 17 ;
18 [label="node #18\ngini = 0.0\nsamples = 1\nvalue = [0.0, 2.088]\nclass = Obstructive"] ;
17 -> 18 ;
19 [label="node #19\ngini = -0.0\nsamples = 2\nvalue = [2.879, 0.0]\nclass = Non-obstructive"] ;
17 -> 19 ;
20 [label="node #20\nFEFPostVal <= 3.96\ngini = 0.486\nsamples = 50\nvalue = [33.592, 46.969]\nclass = Obstructive"] ;
12 -> 20 ;
21 [label="node #21\nFEV1PostPercent <= 80.5\ngini = 0.5\nsamples = 43\nvalue = [33.592, 34.444]\nclass = Obstructive"] ;
20 -> 21 ;
22 [label="node #22\ngini = 0.359\nsamples = 18\nvalue = [6.718, 21.919]\nclass = Obstructive"] ;
21 -> 22 ;
23 [label="node #23\ngini = 0.434\nsamples = 25\nvalue = [26.874, 12.525]\nclass = Non-obstructive"] ;
21 -> 23 ;
24 [label="node #24\ngini = -0.0\nsamples = 7\nvalue = [0.0, 12.525]\nclass = Obstructive"] ;
20 -> 24 ;
}