digraph Tree {
node [shape=box] ;
0 [label="node #0\nFEFPostVal <= 1.14\ngini = 0.5\nsamples = 201\nvalue = [167.0, 167.0]\nclass = Non-obstructive"] ;
1 [label="node #1\nFEFPrePercent <= 26.5\ngini = 0.187\nsamples = 54\nvalue = [8.589, 73.522]\nclass = Obstructive"] ;
0 -> 1 [labeldistance=2.5, labelangle=45, headlabel="True"] ;
2 [label="node #2\nFVCPostPercent <= 38.0\ngini = 0.055\nsamples = 43\nvalue = [1.909, 65.119]\nclass = Obstructive"] ;
1 -> 2 ;
3 [label="node #3\nFEV1PrePercent <= 23.5\ngini = 0.327\nsamples = 5\nvalue = [1.909, 7.352]\nclass = Obstructive"] ;
2 -> 3 ;
4 [label="node #4\ngini = 0.0\nsamples = 3\nvalue = [0.0, 7.352]\nclass = Obstructive"] ;
3 -> 4 ;
5 [label="node #5\ngini = -0.0\nsamples = 2\nvalue = [1.909, 0.0]\nclass = Non-obstructive"] ;
3 -> 5 ;
6 [label="node #6\ngini = -0.0\nsamples = 38\nvalue = [0.0, 57.767]\nclass = Obstructive"] ;
2 -> 6 ;
7 [label="node #7\nFEFPostPercent <= 34.0\ngini = 0.493\nsamples = 11\nvalue = [6.68, 8.403]\nclass = Obstructive"] ;
1 -> 7 ;
8 [label="node #8\nFEV1PrePercent <= 40.5\ngini = 0.424\nsamples = 5\nvalue = [4.771, 2.101]\nclass = Non-obstructive"] ;
7 -> 8 ;
9 [label="node #9\ngini = 0.0\nsamples = 2\nvalue = [3.817, 0.0]\nclass = Non-obstructive"] ;
8 -> 9 ;
10 [label="node #10\ngini = 0.43\nsamples = 3\nvalue = [0.954, 2.101]\nclass = Obstructive"] ;
8 -> 10 ;
11 [label="node #11\nFEV1PostVal <= 2.32\ngini = 0.357\nsamples = 6\nvalue = [1.909, 6.302]\nclass = Obstructive"] ;
7 -> 11 ;
12 [label="node #12\ngini = -0.0\nsamples = 5\nvalue = [0.0, 6.302]\nclass = Obstructive"] ;
11 -> 12 ;
13 [label="node #13\ngini = -0.0\nsamples = 1\nvalue = [1.909, 0.0]\nclass = Non-obstructive"] ;
11 -> 13 ;
14 [label="node #14\nFVCPostPercent <= 68.992\ngini = 0.467\nsamples = 147\nvalue = [158.411, 93.478]\nclass = Non-obstructive"] ;
0 -> 14 [labeldistance=2.5, labelangle=-45, headlabel="False"] ;
15 [label="node #15\nFEFPrePercent <= 31.0\ngini = 0.173\nsamples = 79\nvalue = [128.829, 13.654]\nclass = Non-obstructive"] ;
14 -> 15 ;
16 [label="node #16\ngini = 0.0\nsamples = 2\nvalue = [0.0, 2.101]\nclass = Obstructive"] ;
15 -> 16 ;
17 [label="node #17\nFVCPreVal <= 1.855\ngini = 0.151\nsamples = 77\nvalue = [128.829, 11.553]\nclass = Non-obstructive"] ;
15 -> 17 ;
18 [label="node #18\ngini = 0.057\nsamples = 53\nvalue = [104.971, 3.151]\nclass = Non-obstructive"] ;
17 -> 18 ;
19 [label="node #19\ngini = 0.385\nsamples = 24\nvalue = [23.857, 8.403]\nclass = Non-obstructive"] ;
17 -> 19 ;
20 [label="node #20\nFVCPrePercent <= 100.0\ngini = 0.395\nsamples = 68\nvalue = [29.583, 79.824]\nclass = Obstructive"] ;
14 -> 20 ;
21 [label="node #21\nFVCPreVal <= 1.905\ngini = 0.359\nsamples = 63\nvalue = [23.857, 77.723]\nclass = Obstructive"] ;
20 -> 21 ;
22 [label="node #22\ngini = 0.0\nsamples = 3\nvalue = [3.817, 0.0]\nclass = Non-obstructive"] ;
21 -> 22 ;
23 [label="node #23\ngini = 0.326\nsamples = 60\nvalue = [20.04, 77.723]\nclass = Obstructive"] ;
21 -> 23 ;
24 [label="node #24\nFEV1PreVal <= 3.95\ngini = 0.393\nsamples = 5\nvalue = [5.726, 2.101]\nclass = Non-obstructive"] ;
20 -> 24 ;
25 [label="node #25\ngini = 0.0\nsamples = 4\nvalue = [5.726, 0.0]\nclass = Non-obstructive"] ;
24 -> 25 ;
26 [label="node #26\ngini = 0.0\nsamples = 1\nvalue = [0.0, 2.101]\nclass = Obstructive"] ;
24 -> 26 ;
}