digraph Tree {
node [shape=box] ;
0 [label="node #0\nFEFPrePercent <= 35.5\ngini = 0.5\nsamples = 205\nvalue = [167.0, 167.0]\nclass = Non-obstructive"] ;
1 [label="node #1\nFVCPrePercent <= 53.5\ngini = 0.234\nsamples = 70\nvalue = [16.194, 103.757]\nclass = Obstructive"] ;
0 -> 1 [labeldistance=2.5, labelangle=45, headlabel="True"] ;
2 [label="node #2\nFEFPostVal <= 0.86\ngini = 0.384\nsamples = 30\nvalue = [13.158, 37.55]\nclass = Obstructive"] ;
1 -> 2 ;
3 [label="node #3\nFEV1PrePercent <= 40.0\ngini = 0.218\nsamples = 26\nvalue = [5.061, 35.574]\nclass = Obstructive"] ;
2 -> 3 ;
4 [label="node #4\ngini = 0.058\nsamples = 23\nvalue = [1.012, 32.609]\nclass = Obstructive"] ;
3 -> 4 ;
5 [label="node #5\ngini = 0.488\nsamples = 3\nvalue = [4.048, 2.964]\nclass = Non-obstructive"] ;
3 -> 5 ;
6 [label="node #6\nFEFPostVal <= 1.15\ngini = 0.315\nsamples = 4\nvalue = [8.097, 1.976]\nclass = Non-obstructive"] ;
2 -> 6 ;
7 [label="node #7\ngini = 0.0\nsamples = 2\nvalue = [6.073, 0.0]\nclass = Non-obstructive"] ;
6 -> 7 ;
8 [label="node #8\ngini = 0.5\nsamples = 2\nvalue = [2.024, 1.976]\nclass = Non-obstructive"] ;
6 -> 8 ;
9 [label="node #9\nFVCPrePercent <= 63.5\ngini = 0.084\nsamples = 40\nvalue = [3.036, 66.207]\nclass = Obstructive"] ;
1 -> 9 ;
10 [label="node #10\ngini = 0.0\nsamples = 18\nvalue = [0.0, 32.609]\nclass = Obstructive"] ;
9 -> 10 ;
11 [label="node #11\nFVCPreVal <= 1.7\ngini = 0.152\nsamples = 22\nvalue = [3.036, 33.598]\nclass = Obstructive"] ;
9 -> 11 ;
12 [label="node #12\ngini = 0.0\nsamples = 1\nvalue = [1.012, 0.0]\nclass = Non-obstructive"] ;
11 -> 12 ;
13 [label="node #13\ngini = 0.107\nsamples = 21\nvalue = [2.024, 33.598]\nclass = Obstructive"] ;
11 -> 13 ;
14 [label="node #14\nFVCPrePercent <= 71.5\ngini = 0.416\nsamples = 135\nvalue = [150.806, 63.243]\nclass = Non-obstructive"] ;
0 -> 14 [labeldistance=2.5, labelangle=-45, headlabel="False"] ;
15 [label="node #15\nFEV1PostVal <= 1.935\ngini = 0.293\nsamples = 88\nvalue = [118.418, 25.692]\nclass = Non-obstructive"] ;
14 -> 15 ;
16 [label="node #16\nFEFPostVal <= 1.185\ngini = 0.168\nsamples = 66\nvalue = [97.164, 9.882]\nclass = Non-obstructive"] ;
15 -> 16 ;
17 [label="node #17\ngini = 0.482\nsamples = 3\nvalue = [2.024, 2.964]\nclass = Obstructive"] ;
16 -> 17 ;
18 [label="node #18\ngini = 0.126\nsamples = 63\nvalue = [95.139, 6.917]\nclass = Non-obstructive"] ;
16 -> 18 ;
19 [label="node #19\nFEFPreVal <= 2.665\ngini = 0.489\nsamples = 22\nvalue = [21.255, 15.811]\nclass = Non-obstructive"] ;
15 -> 19 ;
20 [label="node #20\ngini = 0.401\nsamples = 13\nvalue = [6.073, 15.811]\nclass = Obstructive"] ;
19 -> 20 ;
21 [label="node #21\ngini = 0.0\nsamples = 9\nvalue = [15.182, 0.0]\nclass = Non-obstructive"] ;
19 -> 21 ;
22 [label="node #22\nFVCPostVal <= 3.015\ngini = 0.497\nsamples = 47\nvalue = [32.388, 37.55]\nclass = Obstructive"] ;
14 -> 22 ;
23 [label="node #23\nFEV1PrePercent <= 81.5\ngini = 0.484\nsamples = 24\nvalue = [21.255, 14.822]\nclass = Non-obstructive"] ;
22 -> 23 ;
24 [label="node #24\ngini = 0.448\nsamples = 12\nvalue = [6.073, 11.858]\nclass = Obstructive"] ;
23 -> 24 ;
25 [label="node #25\ngini = 0.273\nsamples = 12\nvalue = [15.182, 2.964]\nclass = Non-obstructive"] ;
23 -> 25 ;
26 [label="node #26\nFEFPreVal <= 3.4\ngini = 0.441\nsamples = 23\nvalue = [11.133, 22.728]\nclass = Obstructive"] ;
22 -> 26 ;
27 [label="node #27\ngini = 0.494\nsamples = 17\nvalue = [11.133, 13.834]\nclass = Obstructive"] ;
26 -> 27 ;
28 [label="node #28\ngini = 0.0\nsamples = 6\nvalue = [0.0, 8.893]\nclass = Obstructive"] ;
26 -> 28 ;
}