digraph Tree {
node [shape=box] ;
0 [label="node #0\nFVCPreVal <= 1.5\ngini = 0.5\nsamples = 201\nvalue = [167.0, 167.0]\nclass = Non-obstructive"] ;
1 [label="node #1\nFEFPrePercent <= 32.5\ngini = 0.213\nsamples = 58\nvalue = [91.611, 12.604]\nclass = Non-obstructive"] ;
0 -> 1 [labeldistance=2.5, labelangle=45, headlabel="True"] ;
2 [label="node #2\nFVCPostPercent <= 48.0\ngini = 0.391\nsamples = 12\nvalue = [3.817, 10.503]\nclass = Obstructive"] ;
1 -> 2 ;
3 [label="node #3\nFEV1PrePercent <= 24.0\ngini = 0.495\nsamples = 6\nvalue = [3.817, 3.151]\nclass = Non-obstructive"] ;
2 -> 3 ;
4 [label="node #4\ngini = 0.0\nsamples = 3\nvalue = [0.0, 3.151]\nclass = Obstructive"] ;
3 -> 4 ;
5 [label="node #5\ngini = -0.0\nsamples = 3\nvalue = [3.817, 0.0]\nclass = Non-obstructive"] ;
3 -> 5 ;
6 [label="node #6\ngini = 0.0\nsamples = 6\nvalue = [0.0, 7.352]\nclass = Obstructive"] ;
2 -> 6 ;
7 [label="node #7\nFVCPostVal <= 1.7\ngini = 0.046\nsamples = 46\nvalue = [87.794, 2.101]\nclass = Non-obstructive"] ;
1 -> 7 ;
8 [label="node #8\ngini = 0.0\nsamples = 43\nvalue = [81.114, 0.0]\nclass = Non-obstructive"] ;
7 -> 8 ;
9 [label="node #9\nFVCPostPercent <= 67.5\ngini = 0.364\nsamples = 3\nvalue = [6.68, 2.101]\nclass = Non-obstructive"] ;
7 -> 9 ;
10 [label="node #10\ngini = 0.0\nsamples = 1\nvalue = [0.0, 2.101]\nclass = Obstructive"] ;
9 -> 10 ;
11 [label="node #11\ngini = 0.0\nsamples = 2\nvalue = [6.68, 0.0]\nclass = Non-obstructive"] ;
9 -> 11 ;
12 [label="node #12\nFEFPrePercent <= 57.5\ngini = 0.441\nsamples = 143\nvalue = [75.389, 154.396]\nclass = Obstructive"] ;
0 -> 12 [labeldistance=2.5, labelangle=-45, headlabel="False"] ;
13 [label="node #13\nFEFPostVal <= 3.34\ngini = 0.147\nsamples = 82\nvalue = [10.497, 120.786]\nclass = Obstructive"] ;
12 -> 13 ;
14 [label="node #14\nFEFPrePercent <= 38.5\ngini = 0.136\nsamples = 81\nvalue = [9.543, 120.786]\nclass = Obstructive"] ;
13 -> 14 ;
15 [label="node #15\ngini = 0.022\nsamples = 57\nvalue = [0.954, 86.126]\nclass = Obstructive"] ;
14 -> 15 ;
16 [label="node #16\ngini = 0.318\nsamples = 24\nvalue = [8.589, 34.66]\nclass = Obstructive"] ;
14 -> 16 ;
17 [label="node #17\ngini = -0.0\nsamples = 1\nvalue = [0.954, 0.0]\nclass = Non-obstructive"] ;
13 -> 17 ;
18 [label="node #18\nFVCPreVal <= 2.19\ngini = 0.45\nsamples = 61\nvalue = [64.891, 33.61]\nclass = Non-obstructive"] ;
12 -> 18 ;
19 [label="node #19\nFEFPreVal <= 1.292\ngini = 0.053\nsamples = 22\nvalue = [37.217, 1.05]\nclass = Non-obstructive"] ;
18 -> 19 ;
20 [label="node #20\ngini = 0.0\nsamples = 1\nvalue = [0.0, 1.05]\nclass = Obstructive"] ;
19 -> 20 ;
21 [label="node #21\ngini = 0.0\nsamples = 21\nvalue = [37.217, 0.0]\nclass = Non-obstructive"] ;
19 -> 21 ;
22 [label="node #22\nFVCPrePercent <= 62.5\ngini = 0.497\nsamples = 39\nvalue = [27.674, 32.56]\nclass = Obstructive"] ;
18 -> 22 ;
23 [label="node #23\ngini = 0.0\nsamples = 5\nvalue = [6.68, 0.0]\nclass = Non-obstructive"] ;
22 -> 23 ;
24 [label="node #24\ngini = 0.477\nsamples = 34\nvalue = [20.994, 32.56]\nclass = Obstructive"] ;
22 -> 24 ;
}