digraph Tree {
node [shape=box] ;
0 [label="node #0\nFEV1PrePercent <= 32.5\ngini = 0.5\nsamples = 206\nvalue = [167.0, 167.0]\nclass = Non-obstructive"] ;
1 [label="node #1\nFVCPostPercent <= 25.5\ngini = 0.087\nsamples = 26\nvalue = [1.931, 40.453]\nclass = Obstructive"] ;
0 -> 1 [labeldistance=2.5, labelangle=45, headlabel="True"] ;
2 [label="node #2\ngini = 0.0\nsamples = 2\nvalue = [1.931, 0.0]\nclass = Non-obstructive"] ;
1 -> 2 ;
3 [label="node #3\ngini = -0.0\nsamples = 24\nvalue = [0.0, 40.453]\nclass = Obstructive"] ;
1 -> 3 ;
4 [label="node #4\nFEFPrePercent <= 42.5\ngini = 0.491\nsamples = 180\nvalue = [165.069, 126.547]\nclass = Non-obstructive"] ;
0 -> 4 [labeldistance=2.5, labelangle=-45, headlabel="False"] ;
5 [label="node #5\nFVCPostPercent <= 60.5\ngini = 0.267\nsamples = 56\nvalue = [14.48, 76.758]\nclass = Obstructive"] ;
4 -> 5 ;
6 [label="node #6\nFEFPreVal <= 0.665\ngini = 0.494\nsamples = 13\nvalue = [11.584, 9.335]\nclass = Non-obstructive"] ;
5 -> 6 ;
7 [label="node #7\ngini = 0.0\nsamples = 5\nvalue = [0.0, 8.298]\nclass = Obstructive"] ;
6 -> 7 ;
8 [label="node #8\ngini = 0.151\nsamples = 8\nvalue = [11.584, 1.037]\nclass = Non-obstructive"] ;
6 -> 8 ;
9 [label="node #9\nFEV1PreVal <= 2.255\ngini = 0.079\nsamples = 43\nvalue = [2.896, 67.422]\nclass = Obstructive"] ;
5 -> 9 ;
10 [label="node #10\ngini = 0.056\nsamples = 41\nvalue = [1.931, 65.348]\nclass = Obstructive"] ;
9 -> 10 ;
11 [label="node #11\ngini = 0.433\nsamples = 2\nvalue = [0.965, 2.075]\nclass = Obstructive"] ;
9 -> 11 ;
12 [label="node #12\nFVCPostPercent <= 61.5\ngini = 0.373\nsamples = 124\nvalue = [150.59, 49.789]\nclass = Non-obstructive"] ;
4 -> 12 ;
13 [label="node #13\nFEV1PreVal <= 0.855\ngini = 0.053\nsamples = 44\nvalue = [74.329, 2.075]\nclass = Non-obstructive"] ;
12 -> 13 ;
14 [label="node #14\ngini = 0.258\nsamples = 7\nvalue = [11.584, 2.075]\nclass = Non-obstructive"] ;
13 -> 14 ;
15 [label="node #15\ngini = 0.0\nsamples = 37\nvalue = [62.746, 0.0]\nclass = Non-obstructive"] ;
13 -> 15 ;
16 [label="node #16\nFVCPostVal <= 3.56\ngini = 0.473\nsamples = 80\nvalue = [76.26, 47.714]\nclass = Non-obstructive"] ;
12 -> 16 ;
17 [label="node #17\ngini = 0.443\nsamples = 71\nvalue = [73.364, 36.304]\nclass = Non-obstructive"] ;
16 -> 17 ;
18 [label="node #18\ngini = 0.323\nsamples = 9\nvalue = [2.896, 11.41]\nclass = Obstructive"] ;
16 -> 18 ;
}