digraph Tree {
node [shape=box] ;
0 [label="node #0\nFEFPreVal <= 0.895\ngini = 0.5\nsamples = 211\nvalue = [167.0, 167.0]\nclass = Non-obstructive"] ;
1 [label="node #1\nFEFPrePercent <= 84.0\ngini = 0.15\nsamples = 66\nvalue = [7.952, 89.536]\nclass = Obstructive"] ;
0 -> 1 [labeldistance=2.5, labelangle=45, headlabel="True"] ;
2 [label="node #2\nFVCPostPercent <= 33.5\ngini = 0.117\nsamples = 65\nvalue = [5.964, 89.536]\nclass = Obstructive"] ;
1 -> 2 ;
3 [label="node #3\ngini = 0.0\nsamples = 1\nvalue = [0.994, 0.0]\nclass = Non-obstructive"] ;
2 -> 3 ;
4 [label="node #4\nFEFPostPercent <= 24.5\ngini = 0.1\nsamples = 64\nvalue = [4.97, 89.536]\nclass = Obstructive"] ;
2 -> 4 ;
5 [label="node #5\ngini = 0.033\nsamples = 38\nvalue = [0.994, 58.349]\nclass = Obstructive"] ;
4 -> 5 ;
6 [label="node #6\ngini = 0.201\nsamples = 26\nvalue = [3.976, 31.187]\nclass = Obstructive"] ;
4 -> 6 ;
7 [label="node #7\ngini = 0.0\nsamples = 1\nvalue = [1.988, 0.0]\nclass = Non-obstructive"] ;
1 -> 7 ;
8 [label="node #8\nFVCPostPercent <= 61.5\ngini = 0.441\nsamples = 145\nvalue = [159.048, 77.464]\nclass = Non-obstructive"] ;
0 -> 8 [labeldistance=2.5, labelangle=-45, headlabel="False"] ;
9 [label="node #9\nFEV1PreVal <= 0.87\ngini = 0.022\nsamples = 52\nvalue = [88.47, 1.006]\nclass = Non-obstructive"] ;
8 -> 9 ;
10 [label="node #10\nFVCPostVal <= 0.99\ngini = 0.078\nsamples = 15\nvalue = [23.857, 1.006]\nclass = Non-obstructive"] ;
9 -> 10 ;
11 [label="node #11\ngini = 0.0\nsamples = 13\nvalue = [22.863, 0.0]\nclass = Non-obstructive"] ;
10 -> 11 ;
12 [label="node #12\ngini = 0.5\nsamples = 2\nvalue = [0.994, 1.006]\nclass = Obstructive"] ;
10 -> 12 ;
13 [label="node #13\ngini = 0.0\nsamples = 37\nvalue = [64.613, 0.0]\nclass = Non-obstructive"] ;
9 -> 13 ;
14 [label="node #14\nFEFPrePercent <= 46.5\ngini = 0.499\nsamples = 93\nvalue = [70.577, 76.458]\nclass = Obstructive"] ;
8 -> 14 ;
15 [label="node #15\nFEFPostPercent <= 51.0\ngini = 0.043\nsamples = 22\nvalue = [0.994, 44.265]\nclass = Obstructive"] ;
14 -> 15 ;
16 [label="node #16\ngini = 0.0\nsamples = 19\nvalue = [0.0, 42.253]\nclass = Obstructive"] ;
15 -> 16 ;
17 [label="node #17\ngini = 0.443\nsamples = 3\nvalue = [0.994, 2.012]\nclass = Obstructive"] ;
15 -> 17 ;
18 [label="node #18\nFEFPrePercent <= 80.5\ngini = 0.433\nsamples = 71\nvalue = [69.583, 32.193]\nclass = Non-obstructive"] ;
14 -> 18 ;
19 [label="node #19\ngini = 0.5\nsamples = 41\nvalue = [28.827, 27.163]\nclass = Non-obstructive"] ;
18 -> 19 ;
20 [label="node #20\ngini = 0.196\nsamples = 30\nvalue = [40.756, 5.03]\nclass = Non-obstructive"] ;
18 -> 20 ;
}