digraph Tree {
node [shape=box] ;
0 [label="node #0\nFEFPostPercent <= 30.5\ngini = 0.5\nsamples = 222\nvalue = [166.5, 166.5]\nclass = Non-obstructive"] ;
1 [label="node #1\nFEFPostVal <= 1.13\ngini = 0.152\nsamples = 58\nvalue = [7.021, 77.766]\nclass = Obstructive"] ;
0 -> 1 [labeldistance=2.5, labelangle=45, headlabel="True"] ;
2 [label="node #2\nFVCPostPercent <= 38.5\ngini = 0.133\nsamples = 57\nvalue = [6.018, 77.766]\nclass = Obstructive"] ;
1 -> 2 ;
3 [label="node #3\nFEFPreVal <= 0.87\ngini = 0.444\nsamples = 3\nvalue = [2.006, 0.997]\nclass = Non-obstructive"] ;
2 -> 3 ;
4 [label="node #4\ngini = 0.0\nsamples = 2\nvalue = [2.006, 0.0]\nclass = Non-obstructive"] ;
3 -> 4 ;
5 [label="node #5\ngini = 0.0\nsamples = 1\nvalue = [0.0, 0.997]\nclass = Obstructive"] ;
3 -> 5 ;
6 [label="node #6\nFEV1PrePercent <= 40.5\ngini = 0.094\nsamples = 54\nvalue = [4.012, 76.769]\nclass = Obstructive"] ;
2 -> 6 ;
7 [label="node #7\ngini = -0.0\nsamples = 30\nvalue = [0.0, 48.853]\nclass = Obstructive"] ;
6 -> 7 ;
8 [label="node #8\ngini = 0.22\nsamples = 24\nvalue = [4.012, 27.916]\nclass = Obstructive"] ;
6 -> 8 ;
9 [label="node #9\ngini = 0.0\nsamples = 1\nvalue = [1.003, 0.0]\nclass = Non-obstructive"] ;
1 -> 9 ;
10 [label="node #10\nFVCPostVal <= 2.155\ngini = 0.459\nsamples = 164\nvalue = [159.479, 88.734]\nclass = Non-obstructive"] ;
0 -> 10 [labeldistance=2.5, labelangle=-45, headlabel="False"] ;
11 [label="node #11\nFEFPostVal <= 1.11\ngini = 0.273\nsamples = 86\nvalue = [107.322, 20.937]\nclass = Non-obstructive"] ;
10 -> 11 ;
12 [label="node #12\nFEFPostPercent <= 33.5\ngini = 0.299\nsamples = 6\nvalue = [2.006, 8.973]\nclass = Obstructive"] ;
11 -> 12 ;
13 [label="node #13\ngini = 0.0\nsamples = 1\nvalue = [2.006, 0.0]\nclass = Non-obstructive"] ;
12 -> 13 ;
14 [label="node #14\ngini = 0.0\nsamples = 5\nvalue = [0.0, 8.973]\nclass = Obstructive"] ;
12 -> 14 ;
15 [label="node #15\nFEV1PostPercent <= 96.0\ngini = 0.183\nsamples = 80\nvalue = [105.316, 11.964]\nclass = Non-obstructive"] ;
11 -> 15 ;
16 [label="node #16\ngini = 0.118\nsamples = 77\nvalue = [104.313, 6.979]\nclass = Non-obstructive"] ;
15 -> 16 ;
17 [label="node #17\ngini = 0.279\nsamples = 3\nvalue = [1.003, 4.985]\nclass = Obstructive"] ;
15 -> 17 ;
18 [label="node #18\nFEFPostVal <= 2.86\ngini = 0.492\nsamples = 78\nvalue = [52.157, 67.796]\nclass = Obstructive"] ;
10 -> 18 ;
19 [label="node #19\nFEFPostVal <= 1.015\ngini = 0.399\nsamples = 44\nvalue = [17.051, 44.865]\nclass = Obstructive"] ;
18 -> 19 ;
20 [label="node #20\ngini = 0.244\nsamples = 3\nvalue = [6.018, 0.997]\nclass = Non-obstructive"] ;
19 -> 20 ;
21 [label="node #21\ngini = 0.321\nsamples = 41\nvalue = [11.033, 43.868]\nclass = Obstructive"] ;
19 -> 21 ;
22 [label="node #22\nFVCPrePercent <= 91.5\ngini = 0.478\nsamples = 34\nvalue = [35.105, 22.931]\nclass = Non-obstructive"] ;
18 -> 22 ;
23 [label="node #23\ngini = 0.387\nsamples = 23\nvalue = [28.084, 9.97]\nclass = Non-obstructive"] ;
22 -> 23 ;
24 [label="node #24\ngini = 0.456\nsamples = 11\nvalue = [7.021, 12.961]\nclass = Obstructive"] ;
22 -> 24 ;
}