digraph Tree {
node [shape=box] ;
0 [label="node #0\nFEFPrePercent <= 42.5\ngini = 0.5\nsamples = 209\nvalue = [166.5, 166.5]\nclass = Non-obstructive"] ;
1 [label="node #1\nFVCPreVal <= 1.6\ngini = 0.292\nsamples = 81\nvalue = [23.645, 109.646]\nclass = Obstructive"] ;
0 -> 1 [labeldistance=2.5, labelangle=45, headlabel="True"] ;
2 [label="node #2\nFEFPostVal <= 0.535\ngini = 0.477\nsamples = 28\nvalue = [17.734, 27.412]\nclass = Obstructive"] ;
1 -> 2 ;
3 [label="node #3\nFEFPreVal <= 0.355\ngini = 0.084\nsamples = 17\nvalue = [0.985, 21.32]\nclass = Obstructive"] ;
2 -> 3 ;
4 [label="node #4\ngini = 0.0\nsamples = 13\nvalue = [0.0, 18.274]\nclass = Obstructive"] ;
3 -> 4 ;
5 [label="node #5\ngini = 0.369\nsamples = 4\nvalue = [0.985, 3.046]\nclass = Obstructive"] ;
3 -> 5 ;
6 [label="node #6\nFVCPrePercent <= 72.0\ngini = 0.391\nsamples = 11\nvalue = [16.749, 6.091]\nclass = Non-obstructive"] ;
2 -> 6 ;
7 [label="node #7\ngini = 0.26\nsamples = 10\nvalue = [16.749, 3.046]\nclass = Non-obstructive"] ;
6 -> 7 ;
8 [label="node #8\ngini = 0.0\nsamples = 1\nvalue = [0.0, 3.046]\nclass = Obstructive"] ;
6 -> 8 ;
9 [label="node #9\nFEFPreVal <= 1.125\ngini = 0.125\nsamples = 53\nvalue = [5.911, 82.235]\nclass = Obstructive"] ;
1 -> 9 ;
10 [label="node #10\nFVCPreVal <= 1.645\ngini = 0.05\nsamples = 46\nvalue = [1.97, 75.128]\nclass = Obstructive"] ;
9 -> 10 ;
11 [label="node #11\ngini = 0.214\nsamples = 3\nvalue = [0.985, 7.107]\nclass = Obstructive"] ;
10 -> 11 ;
12 [label="node #12\ngini = 0.028\nsamples = 43\nvalue = [0.985, 68.021]\nclass = Obstructive"] ;
10 -> 12 ;
13 [label="node #13\nFVCPostPercent <= 66.0\ngini = 0.459\nsamples = 7\nvalue = [3.941, 7.107]\nclass = Obstructive"] ;
9 -> 13 ;
14 [label="node #14\ngini = 0.0\nsamples = 2\nvalue = [3.941, 0.0]\nclass = Non-obstructive"] ;
13 -> 14 ;
15 [label="node #15\ngini = 0.0\nsamples = 5\nvalue = [0.0, 7.107]\nclass = Obstructive"] ;
13 -> 15 ;
16 [label="node #16\nFVCPrePercent <= 73.5\ngini = 0.407\nsamples = 128\nvalue = [142.855, 56.854]\nclass = Non-obstructive"] ;
0 -> 16 [labeldistance=2.5, labelangle=-45, headlabel="False"] ;
17 [label="node #17\nFEV1PostVal <= 2.58\ngini = 0.221\nsamples = 87\nvalue = [119.21, 17.259]\nclass = Non-obstructive"] ;
16 -> 17 ;
18 [label="node #18\nFEFPostPercent <= 21.5\ngini = 0.159\nsamples = 79\nvalue = [117.24, 11.168]\nclass = Non-obstructive"] ;
17 -> 18 ;
19 [label="node #19\ngini = 0.0\nsamples = 1\nvalue = [0.0, 4.061]\nclass = Obstructive"] ;
18 -> 19 ;
20 [label="node #20\ngini = 0.108\nsamples = 78\nvalue = [117.24, 7.107]\nclass = Non-obstructive"] ;
18 -> 20 ;
21 [label="node #21\nFEV1PrePercent <= 68.5\ngini = 0.369\nsamples = 8\nvalue = [1.97, 6.091]\nclass = Obstructive"] ;
17 -> 21 ;
22 [label="node #22\ngini = 0.0\nsamples = 6\nvalue = [0.0, 6.091]\nclass = Obstructive"] ;
21 -> 22 ;
23 [label="node #23\ngini = 0.0\nsamples = 2\nvalue = [1.97, 0.0]\nclass = Non-obstructive"] ;
21 -> 23 ;
24 [label="node #24\nFVCPostPercent <= 86.5\ngini = 0.468\nsamples = 41\nvalue = [23.645, 39.595]\nclass = Obstructive"] ;
16 -> 24 ;
25 [label="node #25\nFVCPostPercent <= 76.5\ngini = 0.495\nsamples = 21\nvalue = [19.704, 16.244]\nclass = Non-obstructive"] ;
24 -> 25 ;
26 [label="node #26\ngini = 0.214\nsamples = 4\nvalue = [0.985, 7.107]\nclass = Obstructive"] ;
25 -> 26 ;
27 [label="node #27\ngini = 0.441\nsamples = 17\nvalue = [18.719, 9.137]\nclass = Non-obstructive"] ;
25 -> 27 ;
28 [label="node #28\nFEV1PrePercent <= 105.5\ngini = 0.247\nsamples = 20\nvalue = [3.941, 23.351]\nclass = Obstructive"] ;
24 -> 28 ;
29 [label="node #29\ngini = 0.149\nsamples = 17\nvalue = [1.97, 22.335]\nclass = Obstructive"] ;
28 -> 29 ;
30 [label="node #30\ngini = 0.449\nsamples = 3\nvalue = [1.97, 1.015]\nclass = Non-obstructive"] ;
28 -> 30 ;
}