digraph Tree {
node [shape=box] ;
0 [label="node #0\nFEFPreVal <= 1.085\ngini = 0.5\nsamples = 216\nvalue = [166.5, 166.5]\nclass = Obstructive"] ;
1 [label="node #1\nFEV1PostVal <= 2.47\ngini = 0.141\nsamples = 73\nvalue = [8.172, 98.921]\nclass = Obstructive"] ;
0 -> 1 [labeldistance=2.5, labelangle=45, headlabel="True"] ;
2 [label="node #2\nFEFPreVal <= 0.835\ngini = 0.126\nsamples = 72\nvalue = [7.15, 98.921]\nclass = Obstructive"] ;
1 -> 2 ;
3 [label="node #3\nFVCPostPercent <= 35.5\ngini = 0.048\nsamples = 56\nvalue = [2.043, 81.291]\nclass = Obstructive"] ;
2 -> 3 ;
4 [label="node #4\ngini = 0.0\nsamples = 1\nvalue = [1.021, 0.0]\nclass = Non-obstructive"] ;
3 -> 4 ;
5 [label="node #5\ngini = 0.025\nsamples = 55\nvalue = [1.021, 81.291]\nclass = Obstructive"] ;
3 -> 5 ;
6 [label="node #6\nFVCPostVal <= 1.755\ngini = 0.348\nsamples = 16\nvalue = [5.107, 17.629]\nclass = Obstructive"] ;
2 -> 6 ;
7 [label="node #7\ngini = 0.0\nsamples = 4\nvalue = [4.086, 0.0]\nclass = Non-obstructive"] ;
6 -> 7 ;
8 [label="node #8\ngini = 0.104\nsamples = 12\nvalue = [1.021, 17.629]\nclass = Obstructive"] ;
6 -> 8 ;
9 [label="node #9\ngini = -0.0\nsamples = 1\nvalue = [1.021, 0.0]\nclass = Non-obstructive"] ;
1 -> 9 ;
10 [label="node #10\nFEV1PostVal <= 1.915\ngini = 0.419\nsamples = 143\nvalue = [158.328, 67.579]\nclass = Non-obstructive"] ;
0 -> 10 [labeldistance=2.5, labelangle=-45, headlabel="False"] ;
11 [label="node #11\nFEFPreVal <= 1.52\ngini = 0.11\nsamples = 72\nvalue = [110.319, 6.856]\nclass = Non-obstructive"] ;
10 -> 11 ;
12 [label="node #12\nFEFPrePercent <= 52.0\ngini = 0.329\nsamples = 19\nvalue = [22.472, 5.876]\nclass = Non-obstructive"] ;
11 -> 12 ;
13 [label="node #13\ngini = 0.498\nsamples = 9\nvalue = [5.107, 5.876]\nclass = Obstructive"] ;
12 -> 13 ;
14 [label="node #14\ngini = 0.0\nsamples = 10\nvalue = [17.365, 0.0]\nclass = Non-obstructive"] ;
12 -> 14 ;
15 [label="node #15\nFEV1PrePercent <= 90.0\ngini = 0.022\nsamples = 53\nvalue = [87.847, 0.979]\nclass = Non-obstructive"] ;
11 -> 15 ;
16 [label="node #16\ngini = -0.0\nsamples = 51\nvalue = [85.804, 0.0]\nclass = Non-obstructive"] ;
15 -> 16 ;
17 [label="node #17\ngini = 0.438\nsamples = 2\nvalue = [2.043, 0.979]\nclass = Non-obstructive"] ;
15 -> 17 ;
18 [label="node #18\nFVCPostVal <= 2.95\ngini = 0.493\nsamples = 71\nvalue = [48.009, 60.724]\nclass = Obstructive"] ;
10 -> 18 ;
19 [label="node #19\nFVCPostPercent <= 90.0\ngini = 0.492\nsamples = 35\nvalue = [31.666, 24.485]\nclass = Non-obstructive"] ;
18 -> 19 ;
20 [label="node #20\ngini = 0.407\nsamples = 28\nvalue = [29.623, 11.753]\nclass = Non-obstructive"] ;
19 -> 20 ;
21 [label="node #21\ngini = 0.238\nsamples = 7\nvalue = [2.043, 12.732]\nclass = Obstructive"] ;
19 -> 21 ;
22 [label="node #22\nFEFPrePercent <= 59.0\ngini = 0.428\nsamples = 36\nvalue = [16.344, 36.238]\nclass = Obstructive"] ;
18 -> 22 ;
23 [label="node #23\ngini = 0.094\nsamples = 12\nvalue = [1.021, 19.588]\nclass = Obstructive"] ;
22 -> 23 ;
24 [label="node #24\ngini = 0.499\nsamples = 24\nvalue = [15.322, 16.65]\nclass = Obstructive"] ;
22 -> 24 ;
}