digraph Tree {
node [shape=box] ;
0 [label="node #0\nFEFPostPercent <= 73.5\ngini = 0.5\nsamples = 221\nvalue = [167.0, 167.0]\nclass = Obstructive"] ;
1 [label="node #1\nFEFPostVal <= 0.975\ngini = 0.436\nsamples = 153\nvalue = [74.222, 157.291]\nclass = Obstructive"] ;
0 -> 1 [labeldistance=2.5, labelangle=45, headlabel="True"] ;
2 [label="node #2\nFVCPostPercent <= 40.5\ngini = 0.168\nsamples = 61\nvalue = [9.278, 91.267]\nclass = Obstructive"] ;
1 -> 2 ;
3 [label="node #3\nFEV1PrePercent <= 28.5\ngini = 0.464\nsamples = 9\nvalue = [6.185, 10.68]\nclass = Obstructive"] ;
2 -> 3 ;
4 [label="node #4\ngini = 0.161\nsamples = 6\nvalue = [1.031, 10.68]\nclass = Obstructive"] ;
3 -> 4 ;
5 [label="node #5\ngini = 0.0\nsamples = 3\nvalue = [5.154, 0.0]\nclass = Non-obstructive"] ;
3 -> 5 ;
6 [label="node #6\nFVCPreVal <= 1.045\ngini = 0.071\nsamples = 52\nvalue = [3.093, 80.587]\nclass = Obstructive"] ;
2 -> 6 ;
7 [label="node #7\ngini = 0.453\nsamples = 3\nvalue = [1.031, 1.942]\nclass = Obstructive"] ;
6 -> 7 ;
8 [label="node #8\ngini = 0.05\nsamples = 49\nvalue = [2.062, 78.645]\nclass = Obstructive"] ;
6 -> 8 ;
9 [label="node #9\nFEV1PostPercent <= 69.0\ngini = 0.5\nsamples = 92\nvalue = [64.944, 66.023]\nclass = Obstructive"] ;
1 -> 9 ;
10 [label="node #10\nFEV1PostPercent <= 58.836\ngini = 0.345\nsamples = 47\nvalue = [54.636, 15.535]\nclass = Non-obstructive"] ;
9 -> 10 ;
11 [label="node #11\ngini = 0.168\nsamples = 29\nvalue = [38.142, 3.884]\nclass = Non-obstructive"] ;
10 -> 11 ;
12 [label="node #12\ngini = 0.485\nsamples = 18\nvalue = [16.494, 11.651]\nclass = Non-obstructive"] ;
10 -> 12 ;
13 [label="node #13\nFEV1PreVal <= 3.26\ngini = 0.282\nsamples = 45\nvalue = [10.309, 50.488]\nclass = Obstructive"] ;
9 -> 13 ;
14 [label="node #14\ngini = 0.241\nsamples = 43\nvalue = [8.247, 50.488]\nclass = Obstructive"] ;
13 -> 14 ;
15 [label="node #15\ngini = 0.0\nsamples = 2\nvalue = [2.062, 0.0]\nclass = Non-obstructive"] ;
13 -> 15 ;
16 [label="node #16\nFEV1PostVal <= 3.025\ngini = 0.172\nsamples = 68\nvalue = [92.778, 9.709]\nclass = Non-obstructive"] ;
0 -> 16 [labeldistance=2.5, labelangle=-45, headlabel="False"] ;
17 [label="node #17\nFVCPrePercent <= 82.5\ngini = 0.13\nsamples = 64\nvalue = [90.716, 6.797]\nclass = Non-obstructive"] ;
16 -> 17 ;
18 [label="node #18\nFVCPostPercent <= 76.5\ngini = 0.045\nsamples = 55\nvalue = [81.438, 1.942]\nclass = Non-obstructive"] ;
17 -> 18 ;
19 [label="node #19\ngini = 0.0\nsamples = 47\nvalue = [70.099, 0.0]\nclass = Non-obstructive"] ;
18 -> 19 ;
20 [label="node #20\ngini = 0.25\nsamples = 8\nvalue = [11.34, 1.942]\nclass = Non-obstructive"] ;
18 -> 20 ;
21 [label="node #21\nFVCPrePercent <= 87.5\ngini = 0.451\nsamples = 9\nvalue = [9.278, 4.855]\nclass = Non-obstructive"] ;
17 -> 21 ;
22 [label="node #22\ngini = 0.0\nsamples = 3\nvalue = [0.0, 4.855]\nclass = Obstructive"] ;
21 -> 22 ;
23 [label="node #23\ngini = 0.0\nsamples = 6\nvalue = [9.278, 0.0]\nclass = Non-obstructive"] ;
21 -> 23 ;
24 [label="node #24\nFVCPostVal <= 4.015\ngini = 0.485\nsamples = 4\nvalue = [2.062, 2.913]\nclass = Obstructive"] ;
16 -> 24 ;
25 [label="node #25\ngini = 0.0\nsamples = 3\nvalue = [0.0, 2.913]\nclass = Obstructive"] ;
24 -> 25 ;
26 [label="node #26\ngini = 0.0\nsamples = 1\nvalue = [2.062, 0.0]\nclass = Non-obstructive"] ;
24 -> 26 ;
}