digraph Tree {
node [shape=box] ;
0 [label="node #0\nFEFPostPercent <= 73.5\ngini = 0.5\nsamples = 197\nvalue = [167.0, 167.0]\nclass = Non-obstructive"] ;
1 [label="node #1\nFVCPostPercent <= 39.0\ngini = 0.426\nsamples = 130\nvalue = [68.538, 154.553]\nclass = Obstructive"] ;
0 -> 1 [labeldistance=2.5, labelangle=45, headlabel="True"] ;
2 [label="node #2\ngini = 0.0\nsamples = 12\nvalue = [17.376, 0.0]\nclass = Non-obstructive"] ;
1 -> 2 ;
3 [label="node #3\nFEFPrePercent <= 30.5\ngini = 0.374\nsamples = 118\nvalue = [51.162, 154.553]\nclass = Obstructive"] ;
1 -> 3 ;
4 [label="node #4\nFVCPostVal <= 1.155\ngini = 0.023\nsamples = 48\nvalue = [0.965, 82.981]\nclass = Obstructive"] ;
3 -> 4 ;
5 [label="node #5\ngini = 0.499\nsamples = 2\nvalue = [0.965, 1.037]\nclass = Obstructive"] ;
4 -> 5 ;
6 [label="node #6\ngini = 0.0\nsamples = 46\nvalue = [0.0, 81.944]\nclass = Obstructive"] ;
4 -> 6 ;
7 [label="node #7\nFVCPrePercent <= 64.5\ngini = 0.485\nsamples = 70\nvalue = [50.197, 71.571]\nclass = Obstructive"] ;
3 -> 7 ;
8 [label="node #8\ngini = 0.352\nsamples = 28\nvalue = [38.613, 11.41]\nclass = Non-obstructive"] ;
7 -> 8 ;
9 [label="node #9\ngini = 0.271\nsamples = 42\nvalue = [11.584, 60.161]\nclass = Obstructive"] ;
7 -> 9 ;
10 [label="node #10\nFVCPreVal <= 3.295\ngini = 0.199\nsamples = 67\nvalue = [98.462, 12.447]\nclass = Non-obstructive"] ;
0 -> 10 [labeldistance=2.5, labelangle=-45, headlabel="False"] ;
11 [label="node #11\nFEV1PostVal <= 1.975\ngini = 0.112\nsamples = 64\nvalue = [98.462, 6.224]\nclass = Non-obstructive"] ;
10 -> 11 ;
12 [label="node #12\nFEFPreVal <= 2.055\ngini = 0.029\nsamples = 45\nvalue = [69.503, 1.037]\nclass = Non-obstructive"] ;
11 -> 12 ;
13 [label="node #13\ngini = 0.093\nsamples = 11\nvalue = [20.272, 1.037]\nclass = Non-obstructive"] ;
12 -> 13 ;
14 [label="node #14\ngini = 0.0\nsamples = 34\nvalue = [49.231, 0.0]\nclass = Non-obstructive"] ;
12 -> 14 ;
15 [label="node #15\nFVCPostVal <= 2.445\ngini = 0.258\nsamples = 19\nvalue = [28.96, 5.186]\nclass = Non-obstructive"] ;
11 -> 15 ;
16 [label="node #16\ngini = 0.0\nsamples = 3\nvalue = [0.0, 5.186]\nclass = Obstructive"] ;
15 -> 16 ;
17 [label="node #17\ngini = -0.0\nsamples = 16\nvalue = [28.96, 0.0]\nclass = Non-obstructive"] ;
15 -> 17 ;
18 [label="node #18\ngini = 0.0\nsamples = 3\nvalue = [0.0, 6.224]\nclass = Obstructive"] ;
10 -> 18 ;
}